svm_type c_svc
kernel_type rbf
gamma 0.0059523809523809521
nr_class 21
total_sv 636
rho 0.0094822384017240607 -0.14968756909060846 0.098168994517550345 0.12736731909658244 -0.19471426427217278 0.056488756315741601 -0.02505404221384298 -0.22829034593602332 0.06058751564353964 -0.24142677779628868 0.12283192538639517 -0.052437672093323104 -0.43250147127050026 -0.0011768013737551988 0.011864774989687648 -0.8245369822613986 -0.22436104245963515 -0.20158126835069784 -0.1385983866021431 -0.93852964135677475 -0.20463313724172599 0.11667273669672153 0.14749609839567457 -0.10314594345501849 0.12725878551009143 -0.013143002319103911 -0.17183334022323915 0.060242690036609432 -0.20446973045615552 0.10826715397001919 -0.043790122319801665 -0.43616224851362867 -0.0094154037037085647 0.023112602558205294 -0.78981413239597098 -0.20850525492214136 -0.1934577246140467 -0.13811233468079767 -0.55646174952578453 0.2873459240815176 0.29110308590160427 0.10939100459638602 0.2213256798835932 0.17553219453638944 -0.022592745497373674 0.27008315537406674 -0.071422474981974807 0.23412949682014048 0.13001822559589879 -0.38098824324270564 0.17536657300955194 0.21096791421293504 -0.74729590593907369 -0.10341197022841146 -0.074267147671777556 -4.7019385215623714e-05 -0.22168770559342163 -0.016581616591301317 -0.17250261716575838 -0.064401801280940862 -0.14301857461166248 -0.26259804124991742 -0.04327977288240787 -0.29532420384294072 0.016116153698030825 -0.16434204789022075 -0.50292154500997743 -0.11896452503189106 -0.11412411905802745 -0.80399696660832187 -0.28767173412354535 -0.28451413796991193 -0.24446978416204365 -0.50847680960473385 -0.2009273597172351 -0.02558574026290962 -0.15500490680512638 -0.35454054646133343 -0.090304743092054551 -0.39911576643052149 0.0031578440705853912 -0.18972338225160468 -0.68500288810094245 -0.16863171949141392 -0.11720342074333252 -0.86499952280168357 -0.36033749822511274 -0.33199041017741215 -0.27699535171026934 -0.50187421702545609 0.13466112197742744 0.058612543493720352 -0.14618046913807206 0.11407639320362567 -0.12917100203463525 0.24302583687629625 0.0034031825279613199 -0.30668128367954189 0.04659272916402965 0.057086262917727809 -0.77798974313586988 -0.13926205740224806 -0.11013881286363969 -0.062853473361469195 -0.49235067795042514 -0.13880465226043431 -0.30982019238119624 0.004322759939341286 -0.35533598399114535 0.085061219736859442 -0.13614674982232297 -0.61857539143793883 -0.080358945001076779 -0.065271393212551501 -0.83619965452940792 -0.27494162248790138 -0.28310991833589483 -0.21562664144404597 -0.54730556590090829 -0.29125244157791352 -0.0023104487682037121 -0.39867627427202545 0.19820589059000829 -0.081319038081437311 -0.7835326169464506 -0.053393183355492625 0.054060055104783143 -0.85361059354094204 -0.30489930004586069 -0.26114822343641597 -0.22386008891956793 -0.40333947903347095 0.20174255455865045 -0.023674676654762833 0.37968347432780714 0.23148507610989646 -0.57412569400872848 0.21522140972047857 0.37669894782707208 -0.87170762895663112 -0.043407825612408843 -0.020506655801029981 0.070851821781177951 -0.2238834417335645 -0.32453513205905371 0.039075723958679781 -0.11581617500193335 -0.74317611543764717 0.013716179934021612 0.010606287100623762 -0.86621475244472101 -0.24630014082440008 -0.24608739707143926 -0.20867891584926204 -0.40839583883826513 0.34319566137707574 0.25172622229658065 -0.74095094673367656 0.32757021927398805 0.50509203853039053 -0.84554851044548562 -0.014851976215232694 -0.046963225288262037 0.080871354425445297 -0.17679353017508473 -0.15315304093135529 -0.64067263334087243 -0.1782236749979963 -0.1338190376954782 -0.86644566590497119 -0.33127658424175443 -0.36239939373979024 -0.28012092347083745 -0.53859006883136551 -0.73299558080730109 -0.034616995373929774 0.13749760119471138 -0.86974824654573779 -0.2048536033759088 -0.16554123308734867 -0.1501702201559251 -0.26745199940183356 0.93211980895855007 0.92018120383059954 -0.76028201283362995 0.68879393919904963 0.516650018588523 0.45647455128491676 0.043733717438832989 0.13091604986819766 -0.87667788267322488 -0.31224082513607032 -0.23323753851948104 -0.13732770368937214 -0.33495783948891583 -0.87726391163512774 -0.37422383661454295 -0.31134426272536597 -0.28180563284023252 -0.36186367194621816 0.82728141577494774 0.7930517591244719 0.81563038807613264 0.655126897817355 0.017587818803890293 0.13570946753548083 -0.19165174206134952 0.07922099244510572 -0.21090771509761766 -0.22795949929178369
label 2 3 4 5 6 7 8 11 12 13 14 15 16 22 23 25 26 32 33 34 35
nr_sv 28 36 32 35 31 33 38 31 29 29 40 32 35 11 62 36 1 22 37 33 5
SV
0 0 0.03551454436164906 0.14838773245722525 0.06828060359979074 0.11507057466227584 0.14467484994566171 0 0 0 0.096491731302154771 0 0 0 0 0.011060786147357773 0 0 0 0 35:2 36:2 37:4 38:1 41:1 42:3 43:3 44:3 45:3 46:4 47:1 49:3 50:3 51:2 52:2 53:2 54:3 55:1 58:1 62:2 63:3 64:1 70:2 71:3 72:1 77:1 78:1 79:2 80:2 84:4 85:2 86:3 87:1 91:3 92:2 93:1 97:1 98:2 99:4 100:1 105:2 106:1 107:2 113:2 114:2 115:2 116:2 117:2 118:2 119:3 120:1 121:2 122:2 123:2 124:3 125:2 126:2 127:3 128:2 129:2 
1 0.061303079876390137 0.65214745817974817 0.40355634099310755 0.5996355477817944 0.62988264663446225 0.21376579276672575 0.19088564595017046 0.11181489821510396 0 0.27810124644402029 0.1559525246243729 0 0.093178407411671688 0.17179186776519151 0 0 0 0.029347393644828197 0.55818740564825531 43:1 45:1 49:1 50:2 51:3 52:2 53:4 54:2 58:1 59:4 60:2 61:3 62:1 63:2 67:1 69:2 70:3 71:3 72:1 78:2 79:1 80:1 85:2 86:2 93:2 99:2 100:1 101:2 104:2 112:3 113:2 114:3 115:1 120:3 121:3 122:2 123:3 124:2 125:2 126:2 127:2 130:3 131:3 132:3 133:2 134:3 135:2 139:1 140:1 141:1 142:1 
1 0.36155792713406515 0.55145583777987361 0.41153053897419534 0.70138230413446512 0.76489896595792495 0.8644152332010363 0.84086082027570208 0.47393104248034401 0.51830169148832783 0.75031071793270188 0.46679866838398432 0.33760002913755421 0.56600274553444818 0.54796601877799167 0.070920454408824538 0.28325977176017042 0.52047225085692184 0.42623641349587066 0.13916969444559099 34:1 35:2 36:1 42:2 43:3 44:1 45:3 46:1 49:2 50:4 51:2 52:2 53:1 54:1 61:2 62:3 63:2 69:3 70:1 71:2 72:2 76:2 77:2 78:2 79:1 80:4 83:2 84:2 85:1 86:1 90:2 91:2 97:1 98:2 105:1 106:1 109:1 110:1 113:2 114:1 115:2 116:3 117:3 118:2 121:3 122:2 123:3 124:3 125:2 126:2 128:3 129:2 
0 0.022670701946738966 0.26008892959343205 0.19627636726136299 0.025206757080855038 0.22414703659706486 0.24185712611025395 0.25299557772906356 0.10460755484200153 0.19079818004544163 0.26148935890682684 0.081579673329457869 0.046314964800989386 0.095767241523922422 0.18828372592987738 0.013213629198023432 0.011688144094198983 0.19758436938004367 0.022383583215064399 0 49:1 50:3 51:2 52:3 53:3 54:1 57:2 58:4 59:3 60:2 61:2 62:3 63:1 69:1 70:4 71:2 78:1 79:3 85:2 86:3 87:1 92:1 93:1 94:2 99:3 100:2 101:1 105:1 106:2 107:2 108:1 113:3 114:2 121:2 122:2 123:3 124:2 125:1 126:2 127:2 128:3 129:2 130:2 131:3 132:3 133:3 134:2 135:1 136:1 140:2 141:1 142:1 
0.2618702554053064 0 0.11022334262503682 0 0 0 0.29104523981234115 0.093265407814004497 0.015888362523864462 0 0 0.077738968667595554 0.063912321172265599 0 0.025766959510547471 0.027738519616650938 0 0 0 1 49:1 50:3 51:2 52:3 53:3 54:1 57:2 58:4 59:3 60:2 61:2 62:3 63:1 69:1 70:3 71:2 72:2 77:1 78:2 79:3 80:1 86:2 87:3 88:1 92:2 93:2 94:1 96:2 99:1 100:2 104:3 105:1 106:3 107:2 108:1 113:3 114:2 119:1 120:2 121:3 122:3 123:2 124:1 125:2 126:2 127:2 128:3 129:2 130:2 131:3 132:2 133:3 134:3 135:3 136:1 140:1 141:2 142:1 
1 0.46179284472710913 0.80068304586851236 0.75130546671735388 0.61649608988061022 1 0.70508835170853079 0.64800536130214892 0.47254194070637645 0.60702524670642588 0.70568621388761998 0.56115619189467281 0.41061855848544171 0.61224927843975407 0.59904095593932349 0.046972780605568504 0.53121583878492795 0.84639589533007697 0.45185089831488029 0 35:1 37:2 41:2 42:2 43:2 44:2 45:2 46:2 49:3 52:1 53:3 54:1 61:2 62:3 63:2 69:1 70:1 76:3 77:2 79:1 83:3 84:3 85:1 86:1 90:1 91:2 92:1 98:2 99:1 105:2 107:1 108:2 109:1 110:2 113:2 114:2 115:2 116:2 117:1 118:3 119:1 121:3 122:4 123:3 124:1 125:3 126:2 128:1 129:2 
0 0.13747400177269989 0.013502327522360798 0.20605971604019185 0 0.019161804531190662 0.21039670388373802 0.13542224219066884 0.09296770087593853 0.3672598396680587 0 0.27358335018810787 0.17851199207991486 0.12006606003201689 0.084709859430981679 0 0.20077834159568647 0.27179708642711015 0.43763211748106229 0 49:1 50:3 51:2 52:1 53:2 54:2 57:3 58:2 59:3 60:2 61:2 62:2 63:3 64:1 69:1 70:2 71:2 72:1 78:3 79:2 86:4 87:1 93:2 94:3 95:1 99:2 100:2 101:2 102:1 105:2 106:3 107:2 108:2 113:2 114:3 115:2 121:2 122:2 123:2 124:1 125:2 127:2 128:1 129:2 130:2 131:3 132:2 133:1 134:3 135:3 136:1 140:2 141:2 
0.014568446533407832 0.1832193191055507 0 0.099565330116824308 0.45118131456745802 0.47752195828543198 0 0 0.11699507647156746 0.069991507036428924 0.11090653601094461 0.050048219008185117 0.088244045129407103 0.087636166227707368 0.095172920486660775 0.047023371964371147 0.0029073079494291534 0.066394675730720609 0 0.062662717670687262 35:1 37:3 38:1 41:1 42:2 43:1 44:4 45:2 46:2 47:1 49:2 50:1 51:2 53:2 54:3 55:3 56:1 62:1 63:3 64:3 70:1 71:3 72:3 77:1 78:2 80:1 84:1 85:4 86:2 87:1 91:2 92:3 93:2 98:2 99:3 100:1 105:1 106:2 107:3 113:3 114:2 115:2 116:2 117:2 118:2 119:3 120:1 121:2 122:3 123:1 124:3 125:2 126:2 127:3 128:2 129:1 133:1 135:1 136:1 
0.30532177611871175 0 0.24311086034632828 0.05987581413900625 0 0.019191485010711207 0 0 0 0 0 0 0 0 0 0.0022783143995067511 0 0 0 0 35:2 36:2 37:4 38:1 41:1 42:3 43:3 44:3 45:3 46:4 47:1 49:3 50:3 51:2 52:2 53:2 54:3 55:1 58:1 62:2 63:3 64:1 70:2 71:3 72:2 77:1 78:1 79:2 84:4 85:2 86:3 87:1 91:4 92:2 93:1 98:3 99:1 100:1 105:1 106:2 107:1 113:1 114:3 115:2 116:2 117:2 118:2 119:3 120:1 121:4 122:3 123:3 124:3 125:2 126:2 127:3 128:1 129:2 133:1 135:1 136:1 
0.24339539898990678 0.35490722269643571 0 0 0.39729139506911304 0.010061566737607937 0 0.1032637106595227 0.19539542718256306 0.20166526545130808 0 0 0.054085410236170077 0.17485247975507071 0.058454265172539432 0 0.11650895389676588 0.0081326851569603394 0 0 49:1 50:3 51:2 52:1 53:2 54:2 57:3 58:2 59:3 60:2 61:2 62:2 63:3 64:1 69:1 70:3 71:2 72:1 78:2 79:3 80:2 86:3 88:1 93:3 94:1 95:1 96:2 99:2 100:2 101:2 102:1 104:3 105:2 106:3 107:2 108:3 111:1 112:2 113:2 114:3 115:2 120:2 121:2 122:2 123:2 125:1 126:1 127:2 128:3 129:2 130:2 131:3 132:2 133:2 134:3 135:2 136:1 140:1 141:1 142:1 143:1 
0.56676112098688869 0.4718014078402975 0.21974934237611463 0.36934795396633285 0.92901091609332043 0.43383568795197203 0.15876236818502049 0.44609878474415354 0.30349147215386579 0.18107046218843106 0.78233674194061342 0.11857659668562899 0.082551241850352758 0.23777037435167084 0.21395639676695938 0.034552267236214032 0.12197023817232039 0.31263502660928399 0.37326046102595956 0 34:1 35:2 36:1 37:2 38:1 41:1 42:2 43:2 44:2 45:2 46:3 47:1 49:1 51:1 52:1 53:3 54:3 55:1 62:2 63:1 70:2 71:3 72:2 76:2 77:3 78:1 79:3 80:2 84:2 85:1 86:1 88:1 91:3 92:2 99:1 105:2 106:4 107:1 108:2 109:1 110:2 113:2 114:1 115:3 116:2 117:1 118:3 119:1 121:2 122:2 123:1 124:1 125:3 126:2 129:1 152:2 
0 0.067862237501704378 0 0 0.45749186510372392 0.0038683831266004744 0 0 0.09011654033363288 0 0.05874386464258767 0 0 0.073044804643846786 0 0 0 0 0 0.27277233666190032 49:1 50:3 51:2 52:2 53:1 54:2 55:1 57:3 58:2 59:3 60:3 61:2 62:3 63:2 64:2 69:1 70:2 71:2 72:3 78:3 79:3 80:2 85:1 86:2 87:2 93:2 94:3 99:2 100:2 101:2 102:1 104:1 105:2 106:3 107:2 108:2 112:2 113:2 114:3 115:2 120:1 121:2 122:2 123:2 124:1 126:2 127:1 128:3 129:2 130:2 131:3 132:2 133:1 134:3 135:3 136:2 140:2 141:2 
1 0.73862614348588918 0.96591111362897186 0.86294929996405068 0.70747529174049728 1 0.76679803068570562 0.94398345806607653 1 0.96452568930017901 0.71210803729327465 0.88584429974766088 0.52876104891827691 0.72687246881861733 0.87891168329557634 0.16051330542344625 0.80383384921031731 0.7974277187873815 0.93992914078975365 0.5000964506290323 47:2 51:1 52:2 53:2 54:2 55:2 56:2 59:1 60:1 61:2 62:1 63:2 64:2 66:1 67:3 68:1 71:1 72:3 79:2 80:2 81:1 87:3 88:3 89:2 93:1 94:2 95:2 100:1 101:3 102:2 103:1 105:1 107:1 109:2 110:1 113:1 114:2 115:2 121:1 122:1 123:3 124:2 125:2 126:2 127:3 128:2 131:2 132:3 133:2 134:3 135:2 136:3 139:3 140:2 141:1 142:1 
0.95390251927391922 0.40493335355415111 0.7501343689509401 0.62739342555293975 1 0.52389267092494052 0.41267559331480519 0.30099007927604632 0.28354485234269655 0.19563512589775178 0.73392618274755728 0.12161653163712907 0.14389533517676409 0.31349481185549954 0.2727668418572749 0.010015986309826171 0.42521576202495787 0.3437820009979084 0.37796330773992431 1 35:2 36:1 37:3 38:1 39:1 43:2 44:3 45:2 46:3 47:1 51:2 52:2 53:1 54:3 55:3 56:3 63:2 64:2 70:1 71:1 72:2 78:1 79:1 80:1 85:1 86:3 87:2 92:2 93:2 94:1 98:1 99:2 100:2 106:1 107:4 108:1 109:1 110:1 114:2 115:2 116:2 117:1 118:2 119:2 122:3 123:3 124:2 125:3 126:1 127:3 128:3 129:1 130:2 
1 0.66122294367195678 1 1 0.86580130758774099 1 1 0.80643921921682871 0.72564458892684292 0.87457755425761274 0.95133047694726036 0.80963091247526298 0.64594671806879889 0.97706706807783072 1 0.11882161579556921 0.93646521820551043 0.87869445186774098 0.67567638835188359 0.04165294183213987 43:1 49:4 50:1 51:2 52:2 53:1 57:2 58:2 59:2 60:3 61:1 62:1 63:2 67:1 68:1 69:1 70:2 77:3 78:2 79:2 80:1 84:1 85:3 88:3 91:1 92:3 93:3 95:1 96:2 99:1 100:3 101:1 103:2 104:3 111:3 112:3 113:3 114:3 115:1 119:1 120:3 121:2 122:3 123:2 125:3 126:1 127:1 128:1 129:3 130:2 131:2 132:2 133:3 134:2 135:2 137:1 139:1 140:1 141:1 142:1 
0 0 0 0 0.14602169379470811 0 0 0 0 0 0 0 0 0 0 0 0 0 0 0 49:1 50:3 51:2 52:1 53:2 54:2 57:3 58:2 59:3 60:2 61:2 62:2 63:3 64:1 69:1 70:3 71:2 72:2 78:2 79:3 86:3 93:3 94:1 95:1 99:2 100:2 101:2 102:1 105:2 106:3 107:2 108:2 113:2 114:3 115:2 121:2 122:2 123:2 124:1 125:1 127:2 128:1 129:2 130:2 131:3 132:2 133:1 134:3 135:3 136:1 140:2 141:2 
0 0.021782829266111432 0 0 0 0 0 0.058601302470420683 0 0 0.39311839891595973 0.0099534727269348922 0 0.013041060582359074 0.13171328047208058 0 0.025633167026466806 0.14037267298633374 0.1226941163027159 0 49:1 50:3 51:2 52:1 53:2 54:2 57:3 58:2 59:3 60:2 61:2 62:2 63:3 69:1 70:3 71:2 72:3 78:2 79:3 80:2 86:3 93:3 94:1 95:1 99:2 100:2 101:3 104:1 105:2 106:3 107:2 108:2 112:1 113:2 114:3 115:2 120:1 121:2 122:2 123:2 125:1 126:1 127:1 129:2 130:2 131:3 132:2 133:1 134:3 135:3 136:1 140:2 141:2 
0.28780444297415381 0 0.084542612201819481 0 0.13239994185372597 0 0 0 0 0 0 0 0 0 0 0 0 0 0 0.59587009289334547 44:1 45:2 47:2 50:1 51:1 52:2 53:3 55:3 56:1 58:2 59:3 60:2 61:3 62:3 63:3 64:3 66:1 67:1 68:1 69:1 71:2 72:2 79:1 80:1 86:3 87:2 88:1 94:2 95:2 96:1 98:2 99:1 100:2 101:3 102:1 104:1 107:1 108:3 109:1 113:2 114:2 115:3 116:1 121:1 122:2 123:2 124:2 125:1 126:1 127:3 128:2 129:1 130:3 131:2 132:3 133:2 134:3 135:2 136:3 140:1 141:1 142:1 
0 0 0 0.28402855329754989 0 0.46432104433304522 0.11592175949778014 0.36373784586968683 0.45952046990230083 0.35499118723460982 0.034722491292232836 0.25524820913770163 0.38707156459180037 0.23285294930817799 0.19203756366382543 0.031739488173105498 0.32027335162616538 0.028870637713117219 0.0187074572504063 0 36:1 37:1 38:1 43:2 44:2 45:2 46:3 50:2 51:2 52:1 53:1 54:1 55:3 56:1 62:2 63:2 64:1 70:1 71:2 72:1 77:1 78:2 79:3 80:1 84:1 85:3 86:2 87:2 91:1 92:3 93:1 94:1 99:1 105:2 106:3 107:3 108:1 109:1 110:1 113:2 114:2 115:2 116:3 117:3 118:3 119:3 120:1 121:1 122:2 123:2 124:2 125:2 126:2 127:4 128:2 135:1 136:2 
0.43509718224936272 0 0 0 0.3991978117327929 0 0 0 0 0 0 0 0 0 0 0 0 0 0.18978627897196984 0.30581945537612831 49:1 50:3 51:2 52:3 53:3 54:1 57:2 58:4 59:3 60:2 61:2 62:3 63:1 69:1 70:4 71:2 72:1 78:1 79:3 80:1 85:2 86:3 87:1 92:1 93:1 94:2 99:3 100:2 101:1 105:1 106:2 107:2 108:1 113:3 114:2 121:2 122:2 123:3 124:2 125:1 126:2 127:2 128:2 129:2 130:2 131:3 132:3 133:3 134:2 135:1 140:2 141:1 142:1 
0 0 0 0 0 0 0 0.066514448195433867 0.055434444362021829 0 0 0 0 0.029005727031823476 0 0 0.12665205082574568 0.15142794755331515 0 0 49:1 50:3 51:2 52:1 53:2 54:2 57:3 58:2 59:3 60:2 61:2 62:2 63:3 69:1 70:3 71:2 72:1 78:2 79:3 86:3 93:3 94:1 95:1 99:2 100:2 101:2 102:1 105:2 106:3 107:2 108:2 113:2 114:3 115:2 120:1 121:2 122:2 123:2 124:1 126:2 127:1 128:2 129:2 130:2 131:3 132:2 133:1 134:3 135:3 136:1 140:2 141:2 
0.43495566728710366 0.023448272881846338 0.10566598976722866 0.36615075627141835 0 0.68705920194341752 0.44081755131893124 0.19830597333439517 0.38077173313239476 0.21696880064740143 0.10746355557775711 0.33466543904848789 0.23384246648695814 0.35857413459106202 0.42835167145904951 0.13244696955669355 0.41886276605562456 0.04243183597198847 0.098262647899924171 0.01561237359384573 49:1 50:3 51:2 52:1 53:2 54:2 57:3 58:2 59:3 60:2 61:2 62:2 63:3 64:1 69:1 70:2 71:2 72:1 78:3 79:3 80:3 85:1 86:2 87:2 88:1 93:2 94:3 96:2 99:2 100:3 101:1 102:1 104:3 105:2 106:3 107:2 108:1 111:1 112:3 113:2 114:3 115:2 120:3 121:2 122:2 123:2 124:2 125:1 126:1 127:2 128:3 129:2 130:2 131:3 132:2 133:3 134:3 135:3 140:1 141:2 142:1 
1 1 1 1 0.98116566679708739 1 0.89284541158921438 1 1 1 1 1 0.58880358977952296 0.9401689883870088 1 0.094291905141446142 0.84788870623801726 1 0.96276457090023482 0.10231653354527136 48:2 53:2 54:2 55:3 56:2 60:1 61:3 62:2 63:1 67:1 68:4 69:1 73:1 95:1 96:3 102:1 103:3 108:1 109:2 110:2 111:1 115:1 116:2 117:3 118:3 123:1 124:3 125:2 126:3 127:3 128:3 131:1 132:2 133:2 134:3 135:2 136:3 141:1 142:1 
0.49440514412198061 0.19340758844727007 0.45356330301665976 0.40249210499406934 1 0.56069819924319597 0.23906429412894509 0.058794021920973591 0.21621917689672901 0.099300717032590691 0.46860864266755309 0.1361097836282584 0.01857085511505286 0.15633894180939356 0.1780924636961991 0.062002184688106116 0.16702432534466471 0.18546855771510465 0.21154211343803114 0 36:1 37:1 38:2 43:2 44:3 45:2 46:3 47:4 50:4 51:2 52:2 53:2 54:1 55:3 56:3 58:1 63:3 64:2 71:1 72:3 78:1 79:2 80:2 84:1 85:2 86:2 87:2 88:2 91:1 92:2 93:2 94:3 99:3 100:3 101:1 106:3 107:3 113:1 114:3 115:3 116:3 117:2 118:3 119:1 120:1 121:2 122:2 123:4 124:3 125:2 126:2 127:2 128:2 129:1 135:1 136:2 
0.37345116204210804 0.32762679354469237 0.40132426055517167 0.44154468240586386 0.91139390565722755 0.91782127406504954 0.12051383172199914 0.045389397495264189 0.33952123583496607 0.048127924479121412 0.55073959442103881 0.1688974840836964 0.11750510320248715 0.14907320937963853 0.20916101220178884 0.021966163137206084 0.19979484989322405 0.2484883289481539 0.16016011977590291 0.36824722803463561 44:1 45:2 47:2 50:1 51:1 52:2 53:3 55:3 56:1 58:2 59:3 60:2 61:3 62:3 63:3 64:3 66:2 67:1 68:1 71:2 72:3 79:1 80:2 86:4 87:2 93:1 94:3 95:1 98:2 99:1 100:2 101:3 102:1 107:1 108:3 109:1 113:2 114:2 115:3 116:1 121:1 122:2 123:2 124:2 125:1 126:1 127:3 128:1 129:1 130:3 131:2 132:3 133:2 134:3 135:2 136:3 140:1 141:1 142:1 
1 0.68047188638992184 0.82897948316187464 0.76831570734797461 0.5264741933620487 1 0.86830189778369604 0.45293842374459198 0.84224904608893481 0.53995091221156566 0.51851106750361453 0.64181534741768631 0.46590440575720793 0.70637120600916892 0.68803787243107095 0.084125302974815686 0.57210680302024919 0.35608795075049776 0.37929940147915198 0 35:1 37:1 41:2 42:1 43:2 44:3 45:3 46:1 47:1 49:2 51:2 52:2 53:3 54:1 61:1 62:2 63:2 69:3 70:3 71:3 72:1 77:3 78:2 79:2 80:2 84:3 85:2 87:1 88:3 91:4 92:2 96:2 103:2 104:2 105:3 106:2 107:1 108:2 109:1 111:3 112:3 113:2 114:3 115:2 116:3 117:2 118:3 119:2 120:3 121:3 122:1 123:2 124:2 125:3 126:3 129:1 
0 0 0 0.010134769527173303 0 0 0 0 0.064274430080097145 0.087097311838169988 0 0.022522859672521638 0.031253994846659215 0 0 0.030316955223268258 0 0 0 0.037592769669167532 35:1 36:1 37:1 42:1 43:2 44:2 45:3 46:3 47:1 49:3 50:2 51:2 52:1 53:3 54:3 55:2 56:1 57:1 62:1 63:2 64:1 70:2 71:2 72:1 77:1 78:3 79:3 80:1 84:3 85:3 86:3 87:2 91:3 92:1 93:2 98:2 99:3 100:1 105:2 106:2 113:3 114:2 115:2 116:3 117:1 118:3 121:3 122:2 123:2 124:3 125:2 126:3 127:4 128:3 135:1 136:2 
1 0.24259101510943434 0.30052777840474532 0 0.3860032340720817 0.10001195287918918 0.31621345506027004 0.43198063667649211 0.27719636263665948 0.22504133048650257 0.052329113463829409 0.21265308332714425 0 0.27125660772262938 0.38347483192139692 0 0.34286083415857493 0.96032798656402596 0.26781678737045539 0 35:1 36:1 37:1 38:1 41:1 43:3 44:2 45:2 46:3 49:1 51:1 52:1 53:1 54:1 55:3 56:1 62:2 63:2 64:1 70:1 71:2 72:1 73:1 77:1 78:2 79:3 80:1 84:1 85:3 86:2 87:2 91:1 92:3 93:1 94:1 99:2 106:2 107:2 108:1 109:1 110:1 113:1 114:2 115:2 116:3 117:3 118:3 119:3 120:1 121:1 122:2 123:2 124:2 125:2 126:2 127:4 128:2 135:1 136:2 
-0 0 0 0 0.084963191834202145 0.025358404946665733 0 0 0 0 0 0 0 0 0 0 0 0 0 0.31620066729381968 43:2 45:2 50:2 51:3 52:2 53:2 54:2 56:1 58:3 59:4 60:4 61:3 62:3 63:1 66:1 67:1 69:1 70:3 71:4 72:1 77:1 78:3 79:1 83:1 84:2 85:3 86:2 90:1 91:2 92:1 93:3 96:1 99:1 100:1 101:2 102:2 103:1 104:3 109:1 110:2 111:2 112:1 118:3 119:3 120:1 121:1 122:3 123:2 124:1 125:2 126:2 127:1 130:4 131:2 132:2 133:3 134:1 139:2 140:4 141:1 
-0.079458986140080595 0.12944548349400026 0 0 0.25346741752476704 0.35363448300898137 0.27227012715934917 0.25725518488461979 0 0.17451647910588519 0.27923067501198517 0.0755850867549369 0.15882684796743857 0.18269942154749658 0.37667385546405413 0.031726521738983611 0.072983357925693049 0.2342920260533746 0.37940522205074856 0 50:3 51:2 52:3 53:2 54:1 57:1 58:2 59:1 60:2 61:3 62:2 63:1 69:2 70:2 71:2 72:1 77:2 78:3 79:2 80:2 82:1 83:1 84:2 85:3 86:1 88:2 90:4 91:2 92:3 93:2 96:1 99:1 100:2 101:3 102:3 104:2 110:2 111:1 112:2 113:1 117:2 118:1 119:2 121:3 122:2 123:1 124:1 125:2 126:2 127:1 129:1 130:3 131:2 132:3 133:3 134:1 139:1 140:2 141:1 
-0.083156610833707775 0 0.075035693808960399 0 0.059433397111691738 0 0.1034919163941463 0.074911842753200925 0 0 0 0 0 0 0 0.018675502775692944 0 0 0 0 35:1 37:2 41:2 42:3 43:2 44:2 45:3 46:3 49:1 50:2 51:1 52:2 53:2 54:2 55:1 62:4 63:1 69:2 70:2 74:1 75:2 76:2 77:3 82:4 83:1 84:4 85:3 86:1 88:1 94:1 96:1 102:3 103:2 104:1 109:1 110:2 111:2 113:1 114:1 115:2 116:3 117:3 118:2 119:1 120:2 121:1 122:3 123:3 124:2 125:3 130:2 
-0.048492662649702589 0.65413102790614119 1 0.94053523135008765 0.44676611564384339 0.58442136474698714 0.85633751405145853 0.67130997624558697 0.64206874544310344 0.93835964112292269 0.612598317402963 0.5978684932595677 0.65170092132444346 0.96605837677934381 0.73904487164651966 0.099945320161476808 0.98311156235383834 0.66820588190923191 0.63548680128266055 0 35:1 36:1 37:1 41:2 42:2 43:2 44:2 45:2 46:1 49:3 52:1 53:3 54:2 61:2 62:1 70:2 75:4 76:2 77:1 80:1 81:3 82:3 83:2 84:2 85:2 86:1 88:1 92:1 93:1 94:3 95:2 96:3 101:1 102:2 103:3 104:3 108:1 109:2 110:3 111:2 112:2 113:2 114:2 115:3 116:2 117:1 120:2 121:1 122:2 123:3 124:2 125:1 128:1 129:1 
-0.45117158730433599 0 0 0 0 0.31807203245097659 0 0 0 0 0 0 0 0 0 0 0 0 0 0.032852657645021842 35:1 36:1 37:1 38:1 42:2 43:2 44:3 45:2 46:4 47:1 50:2 51:2 52:1 53:1 54:2 55:3 56:1 62:2 63:2 64:1 69:1 70:2 71:2 72:2 74:1 75:1 76:3 77:2 78:3 79:1 82:1 83:2 84:2 85:1 86:4 93:1 94:1 95:3 96:1 102:1 103:2 104:1 110:2 111:2 112:3 113:1 114:3 115:3 116:2 117:2 118:2 119:3 120:1 121:1 122:2 123:3 124:2 125:3 126:3 127:1 128:1 
-0 0.2805586586154048 0.57540289552915469 0.016770653046546225 0 0.18775505483019084 0 0 0 0 0 0 0 0 0 0 0 0 0 0 34:1 35:1 36:1 37:3 38:2 42:1 43:2 44:3 45:3 46:1 47:3 51:2 52:2 53:1 54:2 55:2 56:1 62:4 63:2 64:1 70:1 71:2 72:1 75:2 76:3 77:3 78:1 83:2 84:3 85:2 86:3 93:1 94:3 95:3 96:1 102:2 103:2 104:1 109:1 110:3 111:4 112:2 114:1 115:1 116:3 117:3 118:3 119:2 120:1 122:3 123:3 124:2 125:2 126:3 
-0.41522510530799495 0.12538953682687809 0 0.11725269241534032 0 0.24926451445854436 0.38049906459761729 0.22311399815110783 0.53887415057432975 0.37369613686694619 0.10547206053061944 0.40506174009804269 0.3053806282262958 0.45027068620797978 0.41884548073528488 0.071276776230076958 0.399079356672847 0.24027435292813296 0 0.24516590839652286 50:3 51:2 52:3 53:2 54:1 57:1 58:2 59:1 60:2 61:3 62:2 63:1 69:2 70:2 71:2 77:2 78:3 79:1 80:3 82:1 83:1 84:2 85:3 86:1 88:2 90:4 91:2 92:2 93:2 96:2 99:1 100:3 101:3 102:2 104:4 109:2 110:2 111:2 112:2 113:1 117:1 118:3 119:2 120:3 121:3 122:2 123:1 125:4 126:3 127:2 128:2 129:1 130:3 131:2 132:3 133:3 134:1 136:2 139:1 140:2 141:1 
-0.026101985112148476 0.059114014142060682 0.36365227622330387 0.39873935229119978 0.42281164635058788 0.56855862362570442 0.2679516480681306 0.17012494820605173 0.119823082119456 0.29484385940400304 0.39269827590937489 0.23927840058727973 0.21280921101081662 0.29863497461057864 0.15508131829136571 0.026686025338583129 0.41807136409135587 0.64665555307203315 0.33868152784134226 0.034540870931434993 50:3 51:2 52:3 53:2 54:1 57:1 58:2 59:1 60:2 61:3 62:2 63:1 69:2 70:2 71:1 77:3 78:2 82:1 83:1 84:2 85:2 86:1 90:4 91:2 92:2 93:3 99:1 100:2 101:2 102:3 103:1 109:1 110:3 111:1 112:1 113:1 118:2 119:2 120:2 121:3 122:2 123:1 124:1 125:2 127:1 128:1 129:1 130:3 131:2 132:3 133:3 134:1 139:1 140:2 141:1 
-1 0.82700304797530222 1 1 1 1 0.40403815866242115 0.46243616717432218 0.71701121042366189 0.41874682517464201 0.9090270558550716 0.46286702389655732 0.28497048457074681 0.44188281459136108 0.48924801465882867 0.10150349583777794 0.42769638526389425 0.32136119456909162 0.48860400877762311 0.83843046823035972 45:2 47:2 48:1 51:1 52:2 53:4 54:2 55:2 56:3 59:2 60:3 61:2 62:2 63:1 64:3 67:1 71:1 72:1 79:2 80:1 84:1 85:1 86:2 87:3 91:1 92:1 93:2 94:2 95:4 99:1 100:2 101:1 103:2 104:4 111:1 112:3 119:1 120:2 123:2 124:1 125:1 126:3 127:3 128:1 131:2 132:2 133:3 134:3 135:2 140:2 142:1 
-0 0.088182440392596401 0.18184150317632555 0.20761723725252318 0 0 0.057445850159620823 0 0.0078311603431237015 0 0 0.0040600411315997965 0.0091652105043202852 0.012765838907474196 0 0 0.021351610306699173 0 0 0 49:2 50:3 51:2 52:3 53:2 54:2 55:1 57:1 58:2 59:2 60:3 61:2 62:1 63:1 69:1 70:4 71:3 78:3 79:1 82:1 83:1 85:2 86:3 90:4 91:2 92:2 93:3 94:2 100:1 101:1 102:4 103:2 104:3 110:2 111:3 112:3 118:3 119:2 121:2 122:2 123:1 124:1 125:2 126:2 127:1 129:1 130:3 131:2 132:3 133:2 134:2 135:1 139:1 140:1 141:1 
-0.9787761537435804 0 0.23179776997869281 0.088614547284550302 0.37572172690964822 0.31398536684596801 0.052761292522475529 0.1585769865679654 0.40172336104454742 0.14751010241597307 0.015199685208648169 0.10381786008783431 0.08669480074659125 0.085793678373005028 0.10661069980990986 0 0.012119035454152358 0 0 0.87739362776062857 43:2 45:2 47:1 50:1 51:2 52:1 53:2 54:1 55:3 56:1 58:1 59:3 60:3 61:2 62:3 63:3 64:2 68:1 69:2 70:3 71:2 72:1 78:2 79:2 84:1 85:1 86:3 90:1 91:2 92:2 93:2 94:1 96:2 99:1 100:1 101:2 102:2 103:3 104:2 110:2 111:2 112:3 119:1 120:1 121:1 122:3 123:2 124:1 125:3 126:3 127:2 128:2 130:2 131:4 132:2 133:3 134:3 135:2 139:1 140:2 142:1 
-0.60163290391259627 0.33896035226042509 1 0.57632169830155844 0.15092959202776959 0.94478117284587548 0.47248688576744474 0.3572827396036336 0.28727516464096958 0.49335094398749507 0.083741693629125744 0.36071304382505415 0.23708313563115566 0.32460267288476896 0.43225635730722278 0.047805038974882037 0.43601584718965836 0.48313568312449506 0.35126545694309824 0.046288983572296057 43:1 44:1 45:1 47:1 50:1 51:2 52:2 53:2 54:2 55:2 56:1 59:2 60:2 61:3 62:1 64:2 67:1 69:1 71:2 72:3 78:1 79:2 80:1 84:1 85:1 86:3 87:1 90:1 91:3 92:2 93:3 94:2 95:2 96:1 99:1 100:1 101:2 102:1 103:3 104:3 111:2 112:2 118:1 119:2 120:2 122:1 123:3 125:2 126:2 127:3 128:2 131:2 132:2 133:3 134:3 135:2 139:2 140:2 142:1 
-0.48857932170819707 0.36171153758491303 0.70280599750765882 0.55151719426993728 0.12170350527717713 0.61934539183959969 0.49838555642910343 0.25118010914603162 0.26090929444073591 0.36254974328812573 0.3682734364286106 0.32278561523346022 0.23150953935781271 0.4065802716037209 0.38598600023854984 0.080076635016859077 0.32472890345269201 0.20411549475529558 0.24414896995255062 0.012626317567124793 43:1 45:2 49:1 50:2 51:3 52:1 53:2 54:2 58:1 59:4 60:2 61:3 62:2 63:2 67:1 69:2 70:3 77:4 78:2 79:1 80:1 83:1 84:2 85:3 88:1 89:2 90:3 91:3 92:3 93:2 95:1 96:2 99:1 100:2 101:1 102:2 103:1 104:4 109:2 110:3 111:2 112:2 118:3 119:2 120:3 121:1 122:3 123:2 124:3 125:4 126:2 127:1 128:1 129:1 130:3 131:1 132:1 133:3 134:1 135:1 139:2 140:1 141:1 
-0.91707944450817569 0 0.99487450279734568 0.39370620499051667 0.39951826961889891 0.55149608849675003 0.41406569868983018 0.2980590199007207 0.066782420216149371 0.1612867179672203 0.46512473686851985 0.25235360672276813 0.078538663869155353 0.14000745857565022 0.32950201968963067 0.055868414637803114 0 0.098688251116927805 0.15028701414955639 0.16824504981554769 35:2 36:1 37:3 38:1 41:1 42:3 43:4 44:3 45:2 46:3 49:1 50:1 51:1 52:1 53:3 54:2 61:1 62:2 63:1 69:2 70:1 72:1 73:1 74:1 75:3 76:3 77:2 80:2 81:3 82:2 83:2 84:3 85:2 86:1 88:2 93:2 94:1 96:2 102:2 103:1 104:2 108:1 109:2 110:3 112:1 113:1 114:3 115:2 116:2 117:3 118:2 121:4 122:1 123:3 124:2 125:1 126:1 129:3 
-0.15834943826983594 0.12511593635814866 0.19136107217333204 0 0.17902460244393908 0.12716549288835705 0 0 0.0078502815541169231 0 0.10806326208713331 0 0.0061352374375451798 0 0.049544256108519126 0 0 0 0 0.014944342738783927 35:2 37:2 38:3 43:2 44:2 45:3 46:3 47:1 51:2 52:1 53:2 54:3 55:3 56:2 63:2 64:3 71:2 72:2 75:1 76:2 77:4 78:2 80:1 83:2 84:2 85:4 86:2 94:1 95:1 96:2 103:2 104:2 110:3 111:3 112:2 114:1 116:3 117:2 118:2 119:4 122:2 123:3 124:2 125:2 126:3 127:1 
-0.22926534119603836 0 0.6479778634116391 0.42941572881321072 0.39239696057717444 0.16627711864238612 0.26814399228475894 0.038102053295084919 0 0 0.28127343711132824 0.12058104001550063 0 0.22086196890228954 0.13636659181252372 0.039498924962229662 0.18013441375339223 0 0.092006024964303185 0.13220533116657288 43:2 45:2 50:2 51:3 52:2 53:2 54:2 56:1 58:3 59:4 60:4 61:3 62:3 63:1 67:1 69:3 70:3 71:2 72:1 78:3 79:3 80:1 83:1 84:1 85:2 86:1 91:2 92:3 93:2 99:1 100:1 101:3 102:3 103:2 110:2 111:3 112:4 118:1 119:2 120:2 121:1 122:3 123:2 124:1 125:2 126:1 127:2 130:4 131:2 132:2 133:3 134:1 139:2 140:4 141:1 
-0.67097279930870191 0.41560396337488137 0.65499928206880143 0.62186353709573305 0.6052125042292551 1 0.60646504228814224 0.40049876504901877 0.96631529172468456 0.32673178081284182 0.58708018985846833 0.4481653039790221 0.32429042105913636 0.49132259652383964 0.48439454645498059 0.070308011132176884 0.40313543933260115 0.33382174963937883 0.34317296389641705 0.16017804176012096 36:1 37:1 38:2 43:1 44:3 45:1 46:3 47:3 50:2 52:1 55:4 56:3 57:2 58:2 62:2 63:2 64:3 65:1 66:1 70:1 71:3 72:2 75:1 76:3 77:1 78:2 79:3 83:1 84:2 85:2 86:2 87:1 94:2 95:3 96:1 103:3 104:2 111:2 112:4 113:1 114:3 115:2 116:3 117:1 118:3 119:2 120:2 121:2 123:3 124:3 125:3 126:2 127:2 
-0 0 0.53064984214852251 0.13283685369648904 0 0.26763100457610317 0.056325331145832699 0 0 0 0 0 0 0 0 0 0 0 0 0 35:2 36:1 37:1 41:1 42:2 43:2 44:3 45:3 46:2 49:2 50:1 51:1 52:1 53:2 54:2 55:2 61:1 62:2 63:1 69:1 70:2 71:1 74:2 75:2 76:3 77:3 78:1 81:1 82:2 83:3 84:3 85:3 86:2 93:1 94:3 95:3 102:3 103:3 104:1 109:1 110:2 111:2 112:2 113:2 114:2 115:3 116:1 117:2 118:4 119:2 120:1 121:3 122:2 123:4 124:3 125:3 126:1 127:1 
-0 0 0.27549452102327959 0.16959278450517273 0 0.1655838998044262 0.015568619625688503 0 0 0 0 0 0 0 0 0 0 0 0 0 35:1 36:1 37:2 38:3 39:1 41:2 42:3 43:2 44:3 45:2 46:3 47:2 49:1 50:2 51:1 52:1 53:1 54:4 55:1 56:1 62:3 63:2 64:1 70:1 71:1 75:2 76:2 77:2 78:1 82:2 83:3 84:3 85:2 86:2 94:1 96:1 103:2 104:3 109:1 110:2 111:2 112:3 113:1 114:2 115:1 116:2 117:4 118:2 119:3 120:4 121:1 122:2 123:3 124:1 125:3 126:3 
-0.93104374937549539 0 0.42724219654923751 0.053528043258820907 0.67989421057180754 0.41895065230517003 0.089893307608269107 0.3536611582085738 0 0.051533326302035991 0.44289917708344262 0 0 0.18020075348547798 0.060332836686082421 0.015299090569678823 0.044635757866313804 0.283091546734345 0.017931214790449505 0.27177795283347339 35:1 36:1 37:3 38:1 41:2 42:1 43:2 44:3 45:2 46:3 49:2 51:2 52:1 53:3 54:2 61:1 62:2 63:1 69:1 70:1 72:2 74:1 75:3 76:1 77:1 80:2 82:3 83:3 84:3 85:2 86:1 88:2 92:1 93:1 94:2 102:2 103:1 104:2 108:1 109:2 110:2 112:3 113:1 114:2 115:2 116:3 117:2 118:2 120:2 121:1 122:2 123:3 124:2 125:1 126:1 128:1 129:1 130:2 
-0 0.4786900099613835 0.16175778741347013 0.11977785002137356 0 0.20976673829717812 0 0 0 0 0 0 0 0 0 0 0 0 0 0 50:3 51:2 52:3 53:3 54:1 57:1 58:2 59:1 60:2 61:2 62:3 63:1 69:2 70:2 71:1 77:3 78:2 82:1 83:1 84:2 85:2 86:1 90:4 91:2 92:2 93:3 96:1 99:1 100:1 101:3 102:2 103:2 104:3 109:2 110:3 111:2 112:2 113:1 117:1 118:3 119:2 121:3 122:2 123:1 124:1 125:4 126:1 127:2 129:1 130:3 131:2 132:2 133:4 134:1 139:1 141:1 
-0.57607787420213552 0.066897627886363692 0.69073534480485677 0.4205523479931087 0.47134111360238151 0.79325627389911724 0.10557583206489946 0.2048033736945814 0.14598803499303301 0.13212303027452435 0.21730523855734146 0.088531539743751442 0 0.040138313881641081 0.16004220499598693 0.0242726866412965 0.1240639098511547 0.27892596470386216 0.18188569203466184 0.16466559094543712 36:1 38:1 43:3 44:2 45:2 46:3 47:3 51:1 52:2 53:1 54:2 55:2 56:3 63:1 64:2 71:2 72:2 73:1 75:1 76:3 77:2 78:3 79:3 80:2 84:1 85:4 86:2 87:2 94:1 95:2 96:2 103:1 104:3 107:2 111:1 112:3 115:3 116:4 117:3 118:2 119:3 120:1 123:2 124:3 125:2 126:3 127:2 128:3 
-1 0.85640697969344282 1 1 1 0.61236476632389036 0.91279343754399767 1 1 0.99032349073451975 1 0.93350797854182388 0.63786491222583497 0.9902166243079521 0.96344792775565169 0.16380553146770496 0.89684792479969311 1 0.93071932641658306 0.44370556207892725 38:2 44:2 45:3 46:2 47:1 48:1 52:2 53:1 55:2 56:2 63:1 64:1 72:2 73:3 76:1 77:3 78:1 79:1 80:2 81:4 85:3 86:3 87:3 88:1 95:1 96:3 104:2 108:1 115:2 116:2 117:1 118:3 119:1 120:3 121:2 124:1 125:3 126:2 127:2 128:2 135:1 136:2 
-0.052445746000023441 0 0.54787773151644248 0.48692753015253842 0 0.0059387742936682043 0.21311636870460757 0 0.34408786204454711 0 0 0.11524302112246382 0.067406817324246956 0 0 0.0057171124523832757 0 0 0 0 35:1 36:1 37:2 38:3 39:1 41:2 42:3 43:2 44:3 45:2 46:3 47:2 49:1 50:2 51:1 52:1 53:1 54:4 55:1 62:3 63:2 64:1 71:2 72:2 74:1 75:2 76:3 77:3 78:2 79:1 82:4 83:1 84:2 85:2 86:3 87:1 94:2 95:2 96:1 102:2 103:2 104:1 109:1 110:3 111:4 112:1 113:1 114:2 115:2 116:3 117:3 118:3 119:2 120:1 121:2 122:3 123:3 124:2 125:2 126:3 
-0.061669069911836939 0.4910117458121252 0.11294470173765868 0.073035885368377781 0.51221116665608479 0.24580985355255924 0 0 0.22726140870207154 0.11568475670638527 0.23547898352630983 0.04547550939392641 0 0.068649701689238077 0.013332594426451847 0 0.24305658250702669 0.29494089413382824 0.25897986751551805 0.1520474036796414 34:1 35:1 37:3 38:1 41:1 42:2 43:3 44:3 45:2 46:3 47:1 51:1 52:1 53:2 54:3 55:1 61:2 62:1 63:2 69:2 70:1 71:1 72:1 75:2 76:2 77:2 80:3 82:3 83:3 84:3 85:3 86:2 88:1 93:2 94:3 102:4 103:2 108:1 109:2 110:3 111:3 114:2 115:3 116:2 117:3 118:2 119:1 121:1 122:2 123:2 124:2 125:2 126:1 130:2 
-0 0 0.52298189053399857 0.16960032282749207 0 0 0.038815668408848834 0 0 0 0 0 0 0 0 0 0 0 0 0 49:2 50:3 51:2 52:3 53:2 54:2 55:1 57:1 58:2 59:2 60:3 61:2 62:1 63:1 69:1 70:3 71:4 78:2 79:1 80:1 82:1 83:1 84:1 85:2 86:3 88:1 90:4 91:2 92:3 93:2 94:2 96:2 100:2 101:4 102:2 103:1 104:3 110:2 111:3 112:1 117:1 118:2 119:3 120:2 121:2 122:2 123:1 124:1 125:2 126:2 127:3 128:2 129:1 130:3 131:2 132:3 133:3 134:1 139:1 140:1 
-0 0.6740258860616678 0.23470029917603835 0.3082442377289567 0.067989029221577443 1 0.1064679804980011 0.25284754593179121 0.54471998779444031 0.3378353470507241 0.50402395107346665 0.23215860401119931 0.33518756309725872 0.4880546425601926 0.413223372304026 0.010278547212662631 0.19436979912391589 0.58056641421109101 0.37553825289083026 0 35:2 36:2 37:1 42:3 43:3 44:2 45:2 46:1 49:1 50:2 53:2 54:2 55:1 61:1 62:3 63:2 68:2 70:2 71:1 74:2 75:2 76:3 77:4 81:1 82:2 83:3 84:2 85:2 86:1 93:1 94:3 95:1 101:2 102:4 103:2 108:1 109:2 110:2 111:2 112:1 113:1 114:2 115:2 116:2 117:3 118:3 119:2 120:1 121:2 122:2 123:3 124:2 125:1 126:1 
-0 0.59015459390198499 0.54450369218475003 0.084181406537620379 0.027894046892631485 0.73052624697988255 0 0 0.11924842292801074 0 0.0041182120764717209 0.027536692172466473 0 0.001731746891743137 0 0 0 0 0 0 43:1 44:1 45:2 47:2 51:2 52:2 53:3 55:3 56:2 58:1 59:2 60:2 61:3 62:3 63:3 64:2 67:1 68:1 69:2 70:1 71:2 72:2 78:3 79:1 80:1 84:2 85:3 86:3 91:2 92:2 93:2 94:2 96:2 99:1 100:1 101:1 102:2 103:2 104:3 110:4 111:2 112:3 118:3 119:2 120:3 122:1 123:1 124:1 125:2 126:2 127:2 128:2 131:2 132:2 133:3 134:3 135:2 139:1 140:2 142:1 
-0.26620916599211775 0.19765079309811517 0.12504882720777613 0.075207729813984284 0.21746585876832331 0.5226878362015569 0.04761494666512326 0.091940204986404567 0.27084419737667764 0 0.32754565144222786 0.18409435062257071 0 0.029364885624851952 0.13745843591833476 0 0 0.15984110037182153 0.13393341865248298 0.067191776371692949 43:1 45:2 50:1 51:3 52:2 53:2 54:2 56:1 58:2 59:2 60:4 61:3 62:3 63:1 66:1 67:1 69:3 70:3 71:2 72:1 78:3 79:3 83:1 84:1 85:2 86:1 90:1 91:2 92:3 93:2 99:1 100:1 101:2 102:2 103:1 109:1 110:2 111:2 112:2 118:3 119:3 120:1 121:1 122:3 123:2 124:1 125:2 126:2 127:1 130:3 131:3 132:2 133:3 134:1 139:1 140:4 141:1 
-0.45289970543228025 0 0 0 0 0.18702359546980385 0 0 0 0 0 0 0 0 0 0 0 0 0 0 35:1 37:2 41:2 42:3 43:2 44:2 45:3 46:3 49:1 50:2 51:1 52:2 53:2 54:2 55:1 62:4 63:1 69:2 70:2 75:2 76:2 77:3 82:2 83:3 84:4 85:3 86:1 88:1 94:1 96:2 102:3 103:2 104:1 109:1 110:2 111:2 113:1 114:3 115:1 116:3 117:3 118:2 119:1 120:2 121:1 122:2 123:2 124:2 125:3 
-0 0.026708849604757997 1 0.49967485994816624 0 0.34683703110352126 0 0 0 0 0 0 0 0 0 0 0 0 0 0.028375352710053259 35:2 37:2 38:3 41:1 42:3 43:2 44:2 45:3 46:3 47:1 50:1 51:2 52:1 53:2 54:3 55:3 56:2 63:2 64:3 71:2 72:2 75:3 76:3 77:2 78:2 83:3 84:2 85:2 86:2 87:1 94:2 95:2 96:2 103:3 104:2 109:1 110:3 111:2 112:2 114:1 115:2 116:2 117:2 118:1 119:2 120:2 122:2 123:2 124:1 125:3 126:2 127:3 
-0.66231361162820168 0.3907171296737188 1 0.93856025845502722 0.58340797658080901 0.62125952366962989 0.72199109266577077 0.58740428311659076 0.61753640222384665 0.35779155921682415 0.5422713817348751 0.39990619143306499 0.44620825824349297 0.74035689142666639 0.59116771818196057 0.079283318288764532 0.48226515963549882 0.40057581806365061 0.18569666463522266 0.23706295532156973 36:1 37:1 38:1 43:3 44:3 45:2 46:3 47:2 48:1 51:1 52:1 53:1 54:2 56:3 63:1 64:2 65:1 71:1 72:2 76:2 77:2 78:3 79:2 80:3 83:1 84:1 85:3 86:3 87:1 88:2 95:3 96:2 104:3 107:1 108:1 112:3 114:2 115:3 116:2 117:3 118:2 119:3 120:3 122:1 124:2 125:1 126:2 127:2 128:3 
-0.98476119085294267 0.55482690855453398 0.079402516794374808 0.34979011151500677 0.54468375573034455 0.42328003670275366 0.51285827501371017 0.25440188468165714 0.59497456710551722 0.4522565426390816 0.59557343007545149 0.40127096037486876 0.32848463655844901 0.4792049630581538 0.3905293002147483 0.034225300031674205 0.42322352767768751 0.56732063179128667 0.50016084655885673 0.62871547343269008 49:2 50:3 51:2 52:3 53:2 54:2 55:1 57:1 58:2 59:2 60:3 61:2 62:1 63:1 69:1 70:4 71:3 72:1 78:3 79:1 80:1 82:1 83:1 85:2 86:3 90:4 91:2 92:2 93:3 94:2 100:2 101:2 102:2 103:1 110:2 111:3 117:1 118:2 119:1 121:2 122:2 123:1 124:1 125:1 126:2 127:3 129:1 130:3 131:2 132:3 133:2 134:2 135:1 139:1 140:1 141:1 
-0.63715022173118296 0 0.423158263734707 0.12493825151295303 0.15285447564355942 0.13273961072315668 0.19996502307697903 0.37491778010402127 0 0.09769698852217619 0.045768394285508884 0 0 0 0.12361125933654113 0 0 0 0.091991803594297802 0.022571697419445525 50:3 51:2 52:3 53:2 54:1 57:1 58:2 59:1 60:2 61:3 62:2 63:1 69:2 70:3 71:1 77:1 78:2 82:1 83:1 84:1 85:2 88:1 90:4 91:2 92:3 93:2 96:2 99:1 100:2 101:1 102:1 104:1 109:1 110:2 111:2 112:2 113:1 117:1 118:2 119:1 120:2 121:3 122:2 123:1 124:1 125:3 126:2 127:1 129:1 130:3 131:2 132:3 133:3 134:1 139:1 140:2 141:1 
-0.59870044086153695 0.15700708291053359 0.66121170165261112 0 0.2354268521849 0.043524348661302253 0.46545482622401613 0.17231338952314335 0.10582057353787745 0.14574903593551208 0.043033657635071706 0.30242957517820196 0 0.06516164256287553 0.23091396871885375 0.0060023927506993834 0.28483290900888414 0.30848450663545179 0.12139558302598892 0 34:1 35:1 36:2 37:1 41:1 42:3 43:2 44:2 45:2 46:1 49:2 50:2 53:2 54:2 55:1 61:1 62:3 63:2 68:2 70:2 71:1 74:2 75:2 76:3 77:4 81:1 82:2 83:3 84:2 85:2 86:1 93:1 94:3 95:1 101:2 102:4 103:2 108:1 109:2 110:2 111:2 112:1 114:2 115:3 116:2 117:3 118:3 119:2 120:1 121:3 122:2 123:3 124:2 125:1 126:1 
-0 0.098910530294805094 0.51209495629078783 0.77070774874493275 0.10842159091213006 0.77337978984340428 0.25876705815892431 0.14221661345188635 0.21831124374338176 0.22868296632144042 0.30026082499874684 0.28626801810960456 0.13690285822759513 0.3010800021803251 0.26917428509169583 0.017745353778593483 0.11881902788412754 0.14874627003068455 0.26003079831288317 0.10481396832883533 35:1 37:2 41:2 42:3 43:2 44:2 45:3 46:3 49:1 50:2 51:1 52:2 53:2 54:2 55:1 62:4 63:1 69:2 70:1 74:1 75:4 76:3 77:2 78:1 82:3 83:3 84:2 85:2 86:1 93:1 94:3 102:4 103:2 108:1 109:2 110:3 111:3 113:1 114:2 115:3 116:2 117:3 118:2 119:1 121:1 122:3 123:2 124:2 125:2 126:1 130:2 
-0.045173348742572804 -0 0 0.32153112165930969 0 0 0 0 0 0.35171770946284792 0.065325186236714461 0 0 0 0 0.01926270253915981 0.054728096670014194 0.13055855594890114 0.015549181152627663 0 38:1 45:3 46:1 47:2 52:2 53:3 54:3 55:2 59:1 60:1 61:2 62:2 67:3 68:1 69:1 70:1 71:1 74:1 75:1 77:1 78:2 81:1 82:3 85:2 86:2 87:2 89:4 90:2 91:2 92:3 93:3 94:2 95:1 97:2 98:3 99:3 100:2 101:2 102:1 103:3 104:3 109:2 110:2 111:1 112:1 117:3 118:2 124:1 125:1 126:3 127:2 
-0.53043220593118101 -0.43611311469409986 0.61018362080169863 0.66064519691150636 0.20283335764653565 0.42301986031434191 0.50667057363265611 0.62803093008159028 0.025478223793923057 0.6849947729742244 0.4967483508163521 0.15330621887529641 0.23474551309906583 0.22564584651157493 0.492758640450846 0.02425494595701717 0.32629045164799375 0.49196896094352877 0.49339668902591499 0.13563402712793032 52:1 53:4 54:3 60:2 61:2 62:1 68:2 69:2 70:2 74:2 75:2 76:2 77:3 78:2 81:2 82:2 83:1 85:2 89:2 93:2 94:1 97:2 98:2 99:1 100:1 101:2 102:3 103:2 105:2 106:2 107:2 108:2 109:2 110:3 111:3 116:1 117:3 118:3 125:3 126:4 127:1 132:1 133:2 134:2 140:1 141:2 
-0.65628201460329194 -0.76219529005772935 0.78325424237298447 0.99466383843652162 0.45202414688747483 1 0.49874550871330237 0.52780094243507647 1 0.33107573292884818 0.69602333522345039 0.59493587287867844 0.28758809754167003 0.4787852354176701 0.56104601062817849 0.051201110113555701 0.42974181759721214 0.29184939697656465 0.24121142340712964 0.28389088533207479 47:2 48:2 54:4 55:2 56:1 61:4 62:2 63:2 68:2 69:3 70:3 71:3 72:1 75:2 76:2 77:2 78:2 79:1 80:1 82:1 83:3 84:2 86:3 87:1 89:1 90:1 91:1 94:3 95:2 97:1 98:2 99:1 101:1 102:1 103:3 104:1 105:3 106:3 107:2 108:3 109:2 110:2 111:4 112:3 114:1 115:3 116:2 117:2 118:3 119:4 125:2 126:4 127:1 133:1 134:3 135:1 
-0.30251496942600403 -0.044864949190894704 0.15906581860298943 0.5464748333515107 0.098280195177852317 0.49022321987213729 0.6314994688042076 0.4864281255242498 0.28296231021882412 0.757295346933198 0.44748268786710577 0.26661943652304171 0.30795507086518953 0.49392167241872104 0.44097172277533203 0.050717432724354888 0.29377598069830441 0.43089766240027566 0.29679310528178321 0.052272669998807267 41:1 47:2 49:3 53:1 55:1 57:1 61:2 62:3 63:1 67:1 68:3 69:2 70:3 74:1 75:2 76:3 77:2 78:2 79:1 81:1 82:2 83:2 85:1 86:2 89:1 90:3 94:2 95:1 96:1 97:3 98:3 99:2 100:1 101:1 102:3 103:3 104:1 105:2 106:4 107:2 108:3 109:2 110:2 111:3 114:1 115:1 116:1 117:3 118:2 125:3 126:2 127:1 133:1 134:3 135:1 
-0.047118229802081371 -0.11031431231739405 0.26468367214005362 0.4064087749711558 0.14773101303868505 0 0.11650130690727009 0 0 0.085553191657815275 0 0 0 0 0 0 0 0 0 0.058608544264497311 37:2 38:2 44:1 45:1 46:3 47:1 51:1 52:3 53:2 54:2 55:1 59:1 60:3 61:2 62:2 67:2 68:2 69:2 70:1 74:1 77:2 78:1 81:2 82:1 85:1 86:3 89:2 90:4 91:2 92:2 93:2 94:3 95:2 96:3 97:2 98:3 99:1 100:2 101:3 102:3 103:2 104:2 105:1 109:2 110:3 111:2 116:1 117:3 118:2 124:1 125:2 126:2 
-0 -0 0 0.010221893525363684 0 0 0.10117708394939168 0.35760318548324233 0.48220823526876339 0.70026557804638767 0 0.31992665019334487 0.3276435525440452 0.38919715165246688 0.1719171886096941 0.045354243674026302 0.39889797562652152 0.028388048860107373 0.27795465360010313 0.011497860188250457 47:2 53:1 55:1 56:1 61:2 62:3 63:1 68:3 69:2 70:3 75:2 76:2 77:1 78:2 79:2 81:2 82:3 83:1 86:2 87:1 89:3 90:3 94:1 95:2 96:2 97:2 98:4 99:2 100:1 101:1 102:3 103:3 104:3 105:2 106:1 107:3 108:3 109:2 110:2 111:2 114:1 116:1 117:2 118:3 125:2 126:3 127:2 133:1 134:3 135:1 
-0 -0 0 0.20418323689601189 0 0.24250486475127814 0.080994134561032979 0.11492969149646926 0.38055880620140198 0 0.16578304895958046 0.27651716142147031 0 0.41105766757747997 0.0040194083499053472 0 0 0 0 0 37:1 38:2 44:1 45:3 46:3 47:1 52:2 53:2 54:2 55:1 59:2 60:2 61:3 62:3 67:3 68:2 69:3 70:3 74:3 75:1 77:2 78:2 81:2 82:1 85:1 86:2 89:2 90:3 91:2 92:2 93:2 94:2 97:2 98:3 99:1 100:2 101:2 102:3 103:2 105:2 109:1 110:2 111:3 112:1 117:1 118:4 119:2 125:2 126:2 
-0.31847612914071 -0.53842341671548122 0.44539785868373261 0.76001151168429859 0.42681827957445662 0.79331107645595511 0.25169456349828007 0.11086345105445536 0.74442295582044715 0.17416770078440369 0.43632590029477908 0.23172724077010237 0.059319588251731122 0.29001407078104091 0.2195402522969965 0.036852007332534811 0.17316726757547196 0.15782179613977584 0.23375312261945874 0.29759181111578337 46:2 47:2 48:1 52:1 53:3 54:2 55:3 56:4 60:1 61:3 62:2 63:3 64:1 67:1 68:2 69:1 70:1 71:2 72:2 74:1 75:3 76:1 78:1 79:4 80:2 82:2 83:3 86:2 87:2 88:2 89:2 90:1 91:2 92:4 93:3 94:2 95:2 96:2 97:1 98:2 99:3 100:1 101:1 102:2 103:2 104:2 105:1 110:3 111:3 112:4 118:2 119:1 120:2 121:1 126:1 127:2 128:1 135:1 136:2 
-0.87232774422292103 -1 1 1 1 1 0.9535735071404523 0.97551975773619559 1 0.96992451291867399 1 0.80134854964479663 0.65308071059152939 1 1 0.16843413749430142 1 1 1 0.49872068737727759 47:2 48:2 54:1 55:3 56:2 62:1 63:2 64:3 65:4 66:1 68:1 69:2 70:1 71:2 72:2 73:2 76:2 77:2 80:3 81:3 83:2 84:2 85:1 88:3 91:3 92:3 93:2 94:2 95:2 96:2 99:3 100:2 101:2 102:1 103:2 104:2 111:3 112:3 119:2 120:2 121:1 127:1 128:2 136:2 
-0.089954761380569112 -0.32173763798739774 0.20848442710964354 0.10936991103784439 0.24291027749893476 0.37849802060298238 0.089560476216427126 0 0.10782857253351276 0.21839234363950269 0.27169755272371104 0.086432377264751115 0.12007312826997478 0.10027017065571561 0.17577409731927504 0.016250579157671453 0.28242292363149979 0.20790650107511854 0.22697714979784755 0.02453662942270228 37:2 38:2 44:1 45:1 46:3 47:1 51:1 52:3 53:2 54:2 55:1 59:1 60:3 61:2 62:2 67:2 68:2 69:3 70:1 74:1 77:3 81:2 82:1 84:1 85:3 86:2 89:2 90:4 91:2 92:2 93:2 94:3 95:3 97:2 98:3 99:1 100:2 101:3 102:3 103:2 105:1 109:2 110:3 111:2 116:1 117:3 118:2 124:1 125:2 126:2 
-0 -0 0 0 0 0.24257779735365953 0 0 0 0 0 0 0 0 0 0 0 0 0 0 37:1 38:2 44:1 45:3 46:3 47:1 51:1 52:2 53:2 54:2 55:1 59:2 60:2 61:3 62:3 67:2 68:2 69:3 70:3 74:1 75:1 77:1 78:3 81:2 82:3 85:2 86:2 89:2 90:2 91:3 92:3 93:3 94:3 97:3 98:3 99:2 100:2 101:2 102:3 103:2 104:1 105:1 109:1 110:2 111:3 112:1 117:1 118:4 119:2 125:2 126:2 
-0 -0.10235299727330308 0.19689007393845395 0 0 0 0 0 0 0 0.061882779793317799 0 0 0 0 0 0 0 0 0 46:2 47:2 48:1 52:1 53:3 54:2 55:3 56:4 60:1 61:3 62:2 63:3 64:1 67:1 68:3 69:1 70:1 71:2 72:2 75:4 76:1 78:1 79:2 80:2 82:1 83:2 86:1 87:1 88:2 89:2 90:2 91:2 92:2 93:2 94:1 95:1 96:2 97:1 98:3 99:2 100:1 101:1 102:2 103:2 104:2 110:3 111:3 112:4 118:2 119:1 120:2 126:1 127:2 128:1 135:1 136:2 
-0.20088703179217521 -0.38256098946837408 0.201326487615241 0.24674727005796018 0 0.070738428216570975 0.082635048887816295 0.036203797485815363 0.082515666042375077 0 0.21170602995473489 0.013444406801180309 0.04391081803572177 0 0.031623532777699012 0.042445204185756966 0.025506994412232666 0.10069234169634105 0.062090516710134012 0.065549226490663026 37:1 38:3 39:1 45:2 46:3 47:2 52:3 53:3 54:2 59:2 60:2 61:3 62:3 68:2 69:2 70:3 74:1 77:1 78:3 81:2 82:2 84:2 85:2 86:2 89:3 90:3 91:3 92:3 93:1 94:2 95:3 96:1 97:2 98:2 99:1 100:2 101:3 102:3 103:2 104:1 109:1 110:1 111:2 112:1 117:1 118:3 119:1 125:2 126:2 
-0.24856736825146622 -0.54142224986747356 0.59237419214799603 0 0.10002480554319759 0.21545039480649014 0.10203414493698054 0.28445969507569419 0.66999458656179811 0 0.14872597403867691 0.22638331577717793 0.24824709498659414 0.44834250654729857 0.26524757371744245 0 0.27921969652270806 0.41625459846245616 0 0.045837393609544738 46:1 47:3 53:1 54:3 55:2 56:3 61:1 62:2 63:2 64:2 65:1 68:3 70:1 71:2 72:1 73:1 75:2 76:2 79:3 80:2 81:2 82:1 83:3 84:1 87:2 88:2 89:2 90:2 91:2 92:1 93:3 94:1 95:2 96:1 98:2 99:2 100:1 101:1 102:2 103:3 104:3 110:1 111:3 112:2 113:1 118:1 119:4 120:2 121:2 127:1 128:4 129:1 135:1 136:2 137:1 
-0.80094105692869966 -0.68302208781780838 0.74509266355061332 0.69480222690689342 0.89794868806781503 0.7436987025502293 0.67786507671184282 0.55796228893152622 0.38598221126451837 0.63019597684432305 1 0.56317575358826943 0.33333165832809719 0.68931469535940992 0.68802628560980694 0.076921380085996915 0.57366933390941188 0.92583306959613032 0.74120099717700982 0.43215436115242262 36:1 37:3 38:2 43:1 44:3 45:2 46:2 47:1 51:1 53:3 54:2 59:1 60:2 61:1 62:2 67:2 68:3 69:2 73:1 74:2 77:3 78:2 79:1 81:1 82:1 85:2 86:3 89:3 90:2 91:2 92:3 93:2 94:3 95:1 97:2 98:2 99:1 100:3 101:3 102:2 103:2 109:2 110:2 111:1 116:1 117:2 118:2 125:3 126:2 
-0.36546502738559483 -0.57797936252565874 0.26698466269843363 0.16174749064836064 0.45409619226937981 0.47095898316356188 0.17187079853858214 0.19030945857903642 0.039194556649516307 0.07269082227017315 0.42907546066686236 0.33617727429410121 0.13222247953192984 0.26896402337766739 0.28581736899577798 0.05007131503383095 0.34735896070111089 0.40794772764629639 0.59335913753399783 0.17415553885546997 52:1 53:3 54:1 60:1 61:4 62:2 63:1 68:3 69:2 70:3 74:2 75:2 76:1 77:3 78:1 81:2 82:2 83:1 85:3 86:2 89:2 93:1 94:1 97:2 98:2 99:1 100:1 101:2 102:3 103:3 104:1 105:2 106:2 107:2 108:3 109:3 110:2 111:2 112:1 116:1 117:2 118:3 125:3 126:1 132:1 133:3 134:1 140:1 141:2 142:1 
-0.64983271843561774 -0.57665598240698879 0.44591865317235763 0.56117223627581192 0.36044454873190812 0.46200840218615807 0.47090136395199877 0.54425244097817338 1 0.53255625438126741 0.43985831358524741 0.51876771691486256 0.29916663176901848 0.6501433128221672 0.48005910895520243 0.10227834652925069 0.515916160453883 0.53891938010825347 0.3017214773177937 0.39522215327652394 47:1 48:3 54:1 55:2 56:2 61:2 62:4 63:2 64:2 69:3 70:2 71:3 72:2 75:1 76:3 77:3 78:2 79:2 80:2 83:1 84:1 86:1 87:2 88:2 91:3 94:1 95:3 96:2 98:3 99:2 102:3 103:2 104:2 106:2 107:3 108:2 109:3 110:3 111:3 112:1 114:1 115:1 116:1 117:2 118:1 119:3 120:2 126:1 127:2 128:3 134:1 135:2 136:2 143:1 
-0.14893023166524696 -0 0 0 0 0 0 0 0 0 0.060130880985449782 0 0 0 0 0 0 0 0 0 46:2 47:2 48:1 52:1 53:3 54:2 55:3 56:4 60:1 61:3 62:2 63:3 64:1 67:2 68:3 69:1 70:1 71:2 72:2 75:3 76:1 78:1 79:2 80:2 82:2 83:2 86:1 87:1 88:2 89:2 90:2 91:2 92:2 93:2 94:1 95:1 96:2 97:1 98:3 99:3 100:1 101:1 102:2 103:2 104:2 110:3 111:3 112:4 118:2 119:1 120:2 121:1 126:1 127:2 128:1 129:1 135:1 136:2 
-0 -0 0 0 0 0.12496821478654876 0 0 0 0 0 0 0 0 0 0 0 0 0 0 38:2 44:1 45:3 46:1 47:2 51:1 52:2 53:3 54:2 55:1 59:1 60:3 61:3 62:3 66:1 67:1 68:1 69:2 70:1 71:2 73:1 74:2 77:2 78:3 81:2 82:2 84:1 85:2 86:1 89:2 90:2 91:4 92:3 93:3 94:2 95:2 96:1 97:3 98:3 99:2 100:2 101:3 102:2 103:2 104:1 109:2 110:2 111:2 112:1 116:1 117:2 118:2 119:1 125:1 126:3 
-0 -0.04556374357411476 0 0 0 0 0 0 0 0 0 0.24234146892322725 0 0.09126658215160445 0 0 0 0 0 0 52:1 53:3 54:1 60:1 61:4 62:2 63:1 68:2 69:2 70:2 74:2 75:2 76:2 77:3 78:4 81:2 82:2 83:1 85:2 86:1 89:2 93:3 94:2 97:2 98:2 99:1 100:1 101:2 102:3 103:2 104:1 105:2 106:2 107:2 108:2 109:2 110:3 111:3 112:1 116:1 117:3 118:3 125:3 126:4 127:1 132:1 133:2 134:2 140:1 141:2 
-0 -0 0 0 0 0 0 0 0 0 0 0 0.035971169316456053 0 0 0 0 0 0 0 37:1 38:2 44:1 45:3 46:3 47:1 52:2 53:2 54:2 55:1 59:2 60:2 61:3 62:3 68:2 69:3 70:3 74:4 75:1 77:1 78:3 81:1 82:1 83:1 85:2 86:2 89:3 90:2 91:3 92:3 93:3 94:3 97:3 98:3 99:1 100:2 101:2 102:3 103:2 104:1 105:1 109:1 110:2 111:3 112:1 117:1 118:4 119:2 125:2 126:2 
-0 -0 0 0 0.12997450219315587 0 0 0 0 0 0.025598370822128461 0 0 0 0 0 0 0 0 0.057402256284966029 37:1 38:2 44:1 45:3 46:3 47:1 52:2 53:2 54:2 55:1 59:2 60:2 61:3 62:3 68:2 69:3 70:3 74:1 75:1 77:1 78:3 81:2 82:1 85:2 86:2 89:2 90:1 91:1 92:3 93:3 94:3 97:3 98:4 99:1 100:2 101:3 102:2 103:2 105:2 109:2 110:3 111:2 112:1 117:1 118:4 119:1 125:2 126:2 
-0.010772776467761402 -0 0 0 0 0.42210062389276359 0 0 0 0 0 0 0.070229856648901773 0.12816594419705507 0.10743700242516668 0 0 0 0 0 38:1 45:3 46:1 47:2 52:2 53:3 54:3 55:2 59:1 60:1 61:2 62:2 66:1 67:3 68:1 69:1 70:2 71:1 74:3 77:2 78:3 79:1 82:1 84:1 85:2 86:2 89:3 90:2 91:2 92:2 93:2 94:3 95:2 96:2 97:3 98:2 99:1 100:1 101:4 102:3 103:2 104:3 105:1 109:3 110:2 111:1 112:1 117:2 118:2 119:1 125:2 126:3 127:2 
-0 -0.047949420146162151 0 0 0.025118400394989367 0 0 0.16807197863080572 0 0.22350996121252475 0 0.013707352646104719 0 0 0 0 0.15293969579225308 0.77214163206242703 0.24677546558260804 0.017964006304982589 53:1 54:2 55:1 60:1 61:1 62:3 63:1 68:2 69:2 70:2 71:1 74:1 75:1 76:2 77:4 78:2 81:2 82:1 83:2 86:3 89:2 90:3 93:2 94:2 97:3 98:2 99:1 101:1 102:4 103:2 105:2 106:3 107:3 108:2 109:4 110:2 111:2 112:1 116:2 117:3 118:2 119:1 124:1 125:3 126:2 127:1 133:1 134:2 135:1 142:1 
-0.058436087692205957 -0.033571950875959274 0 0.13425785380357599 0.09088488978052138 0.18369421745947884 0.32923451322321812 0.3953564495525636 0.66104799213805787 0.30696324069177722 0.10025076020076439 0.34662786539535445 0.36335627249711011 0.50711586556080668 0.41583775204885787 0.069322350592562823 0.40566829105312169 0 0.23495989845387433 0.02285308520995024 53:1 54:2 55:1 60:1 61:1 62:3 63:1 68:3 69:2 70:1 71:2 74:1 75:1 76:2 77:3 78:3 79:3 81:2 82:1 83:2 85:1 86:2 87:1 89:2 90:3 93:1 94:2 97:3 98:2 99:1 101:1 102:4 103:2 104:3 105:2 106:3 107:3 108:2 109:4 110:2 111:2 112:1 116:2 117:3 118:2 119:1 124:1 125:3 126:2 127:1 133:1 134:2 135:1 142:1 
-0.25578717079238694 -0.092748875783361662 0.10281674153786101 0.91229112319388772 0.24408346473124698 0.57620090772458488 0.51201590289564558 0.43939913835754812 0.48254800771788559 0.75857527789025136 0.51609624710292357 0.45547971888611349 0.47076105364222431 0.62209884489343081 0.4418702088188512 0.13636148516921129 0.46381914205550856 0.35972768490671209 0.45723318731420093 0.27065615033950879 46:1 47:3 53:1 54:3 55:2 56:3 61:1 62:2 63:2 64:2 68:3 70:1 71:2 72:1 75:2 76:2 79:3 80:2 82:2 83:3 84:1 87:2 88:2 89:2 90:4 91:2 92:1 93:3 94:1 95:2 96:1 98:4 99:2 100:1 101:1 102:2 103:3 104:3 110:1 111:3 112:2 113:1 118:1 119:4 120:2 121:1 127:1 128:4 129:1 135:1 136:2 
-0 -0.44480043298332417 0.40620380989866883 0.15278404998348158 0.0063243828147605558 0 0.17908559520713635 0 0.24546429866492184 0.047110253649730802 0.069235961930816436 0.078800556670862762 0.027759765119279585 0.34871562866801348 0 0 0.076028838659153844 0.1048107106058537 0 0 38:1 41:2 45:3 46:1 47:2 49:1 52:2 53:3 54:3 55:2 59:1 60:1 61:2 62:2 67:3 68:1 69:1 70:2 71:1 74:2 75:1 77:2 78:3 79:1 81:2 82:3 84:1 85:2 86:2 89:3 90:2 91:2 92:2 93:2 94:3 95:2 96:2 97:2 98:2 99:1 100:1 101:4 102:3 103:2 104:3 109:3 110:2 111:1 112:1 117:2 118:2 119:1 125:2 126:3 127:2 
-0.34126249492351568 -0.25032218757939567 0.46586742812328402 0.68729554540808713 0.51661957429619454 0.36244569821970973 0.25598490703331045 0.35637020177875139 0.28318185201591367 0.3822029400488981 0.46264110860431512 0.24375261602165643 0.28228749932425873 0.21897493881319713 0.39864134246137256 0.055353287934275214 0.35586321433921819 0.26305631067749513 0.47867771925875569 0.29403406925910602 38:1 45:3 46:1 47:2 52:2 53:3 54:3 55:2 59:2 60:1 61:2 62:2 66:1 67:2 68:1 69:1 70:1 71:1 74:3 75:1 77:1 78:2 81:1 82:1 85:2 86:2 87:2 89:4 90:2 91:2 92:3 93:3 94:2 95:1 97:3 98:2 99:3 100:2 101:2 102:1 103:3 104:3 109:2 110:2 111:1 112:1 117:3 118:2 124:1 125:1 126:3 127:2 
-0.035260497614856834 -0.41523788590752297 0.088206443911605856 0 0.13687645503989077 0 0 0 0 0 0 0 0 0 0 0 0 0 0.031586209020764103 0.10391212311285626 37:1 39:1 44:1 45:3 46:2 47:2 51:1 52:1 53:3 54:2 55:2 59:1 61:2 62:3 63:2 68:1 69:2 70:2 71:1 74:1 75:2 78:3 79:2 82:2 83:2 86:2 87:2 89:2 90:3 91:2 92:2 93:3 94:3 95:2 97:1 98:3 99:2 100:1 101:2 102:3 103:2 104:3 109:2 110:2 111:2 118:3 119:2 125:1 126:2 127:1 
-0 -0 0.019619573050603471 0 0 0.11392562320499604 0.022262126162226982 0 0.14589917549259102 0.048963252284247236 0 0 0.018938736009921353 0 0 0 0.06664438252018702 0 0 0 37:1 39:1 44:1 45:3 46:2 47:2 51:1 52:1 53:3 54:2 55:2 59:1 61:2 62:3 63:2 68:2 69:2 70:3 71:1 74:2 75:2 77:1 78:2 79:3 82:2 83:1 86:2 87:2 89:3 90:4 91:2 92:2 93:4 94:2 95:3 96:2 97:3 98:2 99:1 100:1 101:2 102:3 103:2 104:3 105:1 109:2 110:2 111:2 112:1 118:3 119:2 125:1 126:2 127:1 
-0.39841926603258188 -0.47790680008378333 0.15500807497756119 0.15573488222363943 0.59246392034485862 0.58452710610271319 0.25768931707727816 0.11988581185921465 0.48898604913561156 0.38564729118396762 0.4222920692165365 0.23350723437623361 0.23469575404868515 0.39767278598405809 0.42038227659302291 0.041901123859750596 0.50846152145604862 0.52522372196486011 0.47594639123293486 0.28066262741476938 47:2 48:2 54:1 55:1 56:2 61:1 62:3 63:2 64:3 68:1 69:3 70:2 71:3 72:1 76:4 77:1 78:3 79:2 80:1 83:2 85:1 86:1 87:2 88:1 90:1 91:1 94:1 95:2 96:3 97:1 98:1 99:3 100:2 101:3 102:3 103:3 104:3 106:3 107:2 108:3 109:1 110:3 111:2 112:2 114:1 115:2 116:1 117:2 118:1 119:1 126:1 127:2 128:1 134:1 135:2 136:2 143:1 
-0.039858437720824445 -0.1024804491279567 0 0 0 0.077704309208518008 0 0 0.64847360519958142 0 0 0.35456284254753306 0 0.3332966991896783 0.058971855477489787 0.013018347616742997 0 0 0 0.18047247392706023 52:1 53:4 54:3 60:2 61:2 62:1 68:3 69:2 70:3 74:2 75:2 76:1 77:3 78:1 81:2 82:2 83:1 85:3 86:2 89:2 93:1 94:1 97:2 98:2 99:1 100:1 101:2 102:3 103:2 105:2 106:2 107:2 108:2 109:2 110:3 111:3 116:1 117:3 118:3 125:3 126:4 127:1 132:1 133:2 134:2 140:1 141:2 
-0.48037129902671677 -0.57572059127222641 -0.44175656511947065 0.93639865013448065 0.38871895522731881 0.66969480539500492 0.5152481457120146 0.31770063593750447 0.66737304276379106 0.38515737163937108 0.54780886803696038 0.53786126548626634 0.2904480053248244 0.52614393663029313 0.51256074848159527 0.12707075956750202 0.43438685535869132 0.36042360108808474 0.4171252676707477 0.27701562760157161 1:2 2:2 3:2 4:2 5:2 6:2 7:2 8:2 33:1 36:1 37:2 38:2 41:2 43:1 44:4 45:4 46:4 47:4 48:2 49:2 51:2 52:4 53:3 54:2 55:2 56:4 59:2 60:2 61:2 65:2 67:2 68:3 69:3 75:4 76:4 77:4 78:4 79:2 85:2 86:3 87:4 88:3 94:1 95:3 96:4 103:2 104:4 105:1 107:1 111:4 112:4 115:4 116:4 117:4 118:4 119:4 120:4 121:1 124:2 125:2 126:4 127:4 128:3 129:1 161:2 162:2 163:2 164:2 165:2 166:2 167:2 168:2 
-0 -0.14858212426507078 -0 0.88164363954805547 0 0.20417251852293272 0 0 0 0 0 0 0 0 0 0 0 0 0 0 34:1 35:1 36:1 37:1 42:1 43:2 44:3 45:4 46:3 47:2 48:1 50:2 51:3 52:1 53:2 54:3 55:1 56:2 58:2 59:2 63:1 64:1 65:1 66:2 67:1 68:1 73:2 74:3 75:3 76:4 77:2 78:1 81:1 82:2 83:1 84:1 85:2 86:3 87:1 93:1 94:2 95:2 102:2 103:3 104:2 110:3 111:2 112:1 114:2 115:2 116:2 117:4 118:1 119:2 120:2 122:3 123:2 124:3 125:2 126:2 
-0.34963450110481747 -0.037792389924500173 -0.21948200531136203 0.39307583178913524 0.20067142785865769 0.4673859288742323 0 0 0.086700703675275589 0 0.12229343055205359 0.034273014576957007 0 0.0013507286978741893 0 0 0.011315375628053854 0 0 0.32873175028014889 45:2 47:2 48:2 51:1 52:3 53:2 54:2 55:3 56:2 59:4 60:3 61:4 62:2 63:2 66:1 67:2 68:3 69:2 74:1 75:2 83:2 85:2 86:1 87:1 91:1 92:2 93:2 94:2 95:3 96:2 97:1 101:1 103:3 104:2 111:2 112:3 118:1 119:3 120:3 123:2 124:2 125:1 126:2 127:3 128:3 131:3 132:2 133:3 134:3 135:2 140:2 142:1 
-0.72616115482222909 -1 -0.55558256636318382 0.82805169649311006 1 1 0.8350630734154989 0.56188218391379863 0.60456680971911192 0.72295999427776592 0.84261810071838661 0.66358868709012586 0.32991290947708007 0.66265722645377778 0.73129810992550859 0.060488837812178696 0.69105813741561684 1 0.75859957232142272 0.20401740868394641 34:1 35:1 36:1 37:1 38:1 39:1 41:1 42:3 43:3 44:2 45:2 46:3 47:1 48:1 49:2 50:2 51:1 53:2 55:1 56:1 57:2 58:2 65:2 66:1 67:1 73:1 74:2 75:3 76:2 77:2 81:2 82:2 83:1 84:2 85:2 86:3 93:3 94:3 95:1 101:4 102:3 103:1 108:2 109:3 110:2 111:1 113:2 114:2 115:3 116:1 117:3 118:3 119:1 121:3 122:2 123:3 124:2 125:1 
-0.1112091842525261 -0.95391231628450668 -0.35851098745507337 0 0.020676828269932081 0.041930116185868505 0.1065273456902134 0.0846774350454403 0.2511738197575184 0.10668887262735796 0.15078694834734052 0.14906972847980962 0.10860533917821492 0.22057090755441647 0.12498047902034964 0 0.13165518735965592 0.10848534653276544 0.15670859242546709 0.009807165029861422 34:2 35:2 37:3 38:2 39:1 42:3 43:2 44:2 45:2 46:4 47:2 48:2 50:1 51:2 52:1 53:1 54:2 55:1 56:2 58:1 59:2 63:1 67:2 68:3 72:1 74:2 75:2 76:2 77:2 78:3 80:2 82:1 83:2 84:1 85:1 86:2 87:2 88:1 94:1 95:3 96:2 102:2 103:2 104:3 109:1 110:3 111:4 112:1 114:1 115:2 116:3 117:3 118:3 119:2 120:1 122:2 123:2 124:2 125:2 126:3 
-0.45544271666509073 -1 -0.08988028562422741 0.47654727102141597 0.31724439112088282 0.76199912921962476 0.29610250027360607 0.22739189668677295 0.37987021030434348 0.19237094861095946 0.24161606142405939 0.18041693416588292 0.20289370149614244 0.27944399133394554 0.15586076045686295 0.0037006184193146691 0.25074437174921982 0.082966893108410253 0.076346861963405621 0.18691175378427188 36:2 37:1 38:2 43:4 44:3 45:2 46:2 47:2 48:2 51:2 52:2 53:1 54:1 55:3 56:2 59:2 60:1 64:1 67:2 68:3 69:1 74:1 75:2 76:1 77:2 78:2 79:1 82:1 84:1 85:2 86:3 87:1 95:3 96:3 103:3 104:3 111:2 112:3 114:2 115:2 116:3 117:1 118:3 119:2 120:2 122:1 123:1 124:3 125:3 126:2 127:2 128:1 
-0.016740622445053348 -0.41978743537254504 -0.12132755037730168 0.075497014007040536 0 0.022470542873684579 0.2292651096512994 0.074808913341696592 0.062000321627981636 0.11127622838457545 0 0 0.077064831908782286 0.072547775548713903 0.056126815769992594 0.0057551087868971413 0.12963387168415996 0 0 0.008579341918960889 47:1 48:1 49:2 50:3 51:2 52:3 53:3 54:2 55:2 56:2 58:2 59:2 60:3 61:1 62:1 63:1 64:1 66:3 73:2 74:2 80:1 81:2 82:2 83:3 84:2 85:1 88:3 90:2 91:1 92:3 93:3 94:4 95:1 96:4 101:2 102:1 103:2 104:2 110:2 111:2 112:2 117:1 118:3 119:3 120:1 121:2 122:2 123:2 124:1 125:2 126:2 127:2 128:2 129:1 130:1 131:2 132:3 133:2 134:1 140:1 
-0.066437806773491218 -0.40800177302317386 -0 0.33166066636234987 0 0.068069659639117389 0 0.039661478896725805 0 0 0 0 0 0 0 0 0 0 0 0 49:1 50:3 51:2 52:2 53:1 54:3 57:2 58:3 59:4 60:2 61:2 62:3 63:1 65:4 66:2 67:1 68:1 69:2 73:3 74:2 81:2 82:3 83:4 84:1 89:1 90:2 91:3 92:3 93:2 100:1 101:3 102:1 103:1 104:1 109:1 110:3 111:2 112:2 113:1 117:1 118:2 119:3 120:2 121:1 122:2 123:1 124:1 125:4 126:1 127:2 128:1 129:1 130:3 131:2 132:3 133:3 134:1 139:1 140:2 141:1 
-0.28620447885235667 -0.39701799109601577 -0.45793733330132136 0.85196224045312607 0.2120847039325435 0.26258640537475719 0.4902586081975438 0.18699910547252716 0.42735734145607229 0.25558562939770629 0.30037698950620834 0.29344984914238775 0.26927664265753654 0.32063578322100467 0.33969237453830498 0.026506822249046016 0.49865685798290404 0.25994103811153618 0.26895373007496465 0.091439794089927223 41:1 45:1 47:1 48:1 49:2 50:1 51:2 52:3 53:2 54:3 55:1 56:1 57:2 58:2 59:2 60:3 61:2 62:3 65:2 66:2 67:2 72:1 73:3 74:2 79:1 80:2 81:3 82:2 83:2 84:1 87:1 88:1 89:1 90:2 91:2 92:3 93:2 94:2 95:3 96:1 101:2 102:2 103:3 104:1 109:2 110:2 111:3 116:1 117:2 118:3 119:2 120:3 121:3 122:2 123:2 124:1 125:2 126:2 127:3 128:2 129:1 130:2 131:2 132:2 133:2 139:2 140:2 141:1 152:3 
-0.30226941384024608 -1 -0.16702819443502409 0.84871752541857137 0.32794421204011981 0.63162053057476641 0.5594721492585204 0.40310807259895709 0.16227548882712312 0.34233778470511111 0.52096558039720087 0.27873714695223556 0.16228069763595726 0.35449442653004098 0.33256567697032796 0.03035358298872624 0.13528526915142333 0.35057700387318297 0.1989011005903383 0.1337905007769955 35:1 36:2 37:2 38:2 40:1 43:1 44:3 45:3 46:3 47:2 48:1 51:2 52:3 53:1 54:3 56:1 59:2 60:1 67:3 68:2 69:3 75:3 76:2 77:2 78:3 79:1 83:2 84:1 85:2 86:3 87:1 88:2 95:2 96:2 104:3 108:2 111:2 112:2 116:4 117:2 118:2 119:3 120:3 123:3 124:2 125:3 126:3 127:2 128:1 
-0 -0.1361915125811835 -0 0.38423065017263824 0.017528751886686497 0.29919619893653343 0.43184653015988544 0.20510528765144473 0.11311540813146609 0.079136891319094113 0.16905964840043627 0.12780499254684347 0.12996051717490062 0.24210437272793961 0.10821570587465759 0.032821642536747284 0 0.067685345442219158 0 0 49:1 50:3 51:2 52:2 53:1 54:3 57:2 58:3 59:4 60:2 61:2 62:3 63:1 65:4 66:2 67:1 68:1 69:2 73:3 74:2 81:2 82:3 83:4 84:1 88:2 89:1 90:2 91:3 92:3 93:2 96:2 100:1 101:2 102:3 104:2 109:1 110:2 111:2 112:3 113:1 117:1 118:3 119:3 120:3 121:1 122:2 123:1 124:1 125:2 126:1 127:1 128:2 129:1 130:3 131:2 132:3 133:3 134:1 139:1 140:2 141:1 
-0.46151202123568857 -1 -0.660218967787505 0.50943443649037112 0.15020445686174999 0.62815083439866848 0 0.11906505231566487 0.19338759867221003 0.19444998130126401 0.20602864718352468 0.093054893653113147 0.048989377416508578 0.011872156602541704 0 0 0.12543772263817504 0.2600307235459004 0.1955278982287858 0.18208406397243504 43:1 45:2 47:1 48:3 50:1 51:2 52:1 53:2 54:3 55:3 56:1 58:1 59:3 60:2 61:2 62:1 63:1 64:1 67:2 68:2 69:1 75:2 82:2 83:2 84:2 86:1 90:1 91:2 92:2 93:3 94:1 95:2 100:1 101:1 102:2 103:3 104:2 110:1 111:2 112:3 118:3 119:2 120:1 122:1 123:2 124:2 125:2 126:2 127:2 128:2 131:2 132:2 133:3 134:3 135:2 139:1 140:2 142:1 
-0.0047394147553070374 -0 -0.0026528917425409229 0 0 0 0 0 0 0 0 0 0 0 0 0 0 0 0 0 49:1 50:3 51:2 52:2 53:1 54:3 57:2 58:3 59:4 60:2 61:2 62:3 63:1 65:4 66:2 67:1 68:2 69:1 70:1 73:3 74:2 80:1 81:2 82:3 83:4 84:1 89:1 90:2 91:3 92:2 93:3 94:2 95:1 100:1 101:3 102:2 103:1 110:3 113:1 117:1 118:1 119:2 121:1 122:2 123:1 124:1 125:2 126:2 127:1 129:1 130:3 131:2 132:3 133:3 134:1 139:1 140:2 141:1 
-0.144384656612778 -0.1801579161080149 -0.2771229472743118 0.15389119161960937 0.079091720044925304 0.28139469608183237 0.24886129996904774 0.134368277083143 0.1612379954040476 0.11384939935495413 0.099507874033363419 0.22466726599231124 0.15243190288052394 0.26471391715535125 0.41516605982055027 0.054538752389370608 0.408668519226566 0.084630555511943054 0.11976069031873049 0 49:1 50:3 51:2 52:2 53:1 54:3 57:2 58:3 59:4 60:2 61:2 62:3 63:1 65:4 66:2 67:1 68:1 69:2 73:3 74:2 80:1 81:2 82:3 83:4 84:1 88:2 89:1 90:2 91:3 92:3 93:2 96:1 100:1 101:2 102:2 103:1 104:2 109:1 110:4 111:2 112:4 113:1 117:2 118:2 119:2 120:2 121:1 122:2 123:1 124:2 125:1 126:2 127:1 128:1 129:1 130:3 131:2 132:3 133:3 134:1 136:2 139:1 140:2 141:1 
-0.11155633376267654 -0.49104489869354323 -0 0 0 0.16833902045154303 0.23814407255966774 0 0.12395516750695511 0 0 0.14382677405878067 0.018779253042227148 0.092958462138532205 0.12102050412902655 0.0014003333546711752 0.096531647157952732 0 0 0.18270653257762987 42:1 43:1 45:1 47:3 48:1 50:3 51:3 52:2 53:2 54:2 55:2 56:1 58:3 59:3 60:3 61:3 62:1 66:2 67:3 68:1 69:1 74:2 75:2 82:1 83:1 84:2 85:1 86:1 91:1 92:2 93:2 94:3 95:2 100:1 101:2 102:4 103:3 110:1 111:3 112:2 118:4 119:3 120:3 121:1 122:4 123:2 124:1 125:2 126:2 127:2 128:1 129:1 130:3 131:3 132:2 133:3 134:1 138:1 139:2 140:4 141:1 
-1 -1 -0.72196298085765798 0.98212371816383437 0.91092880281954525 1 0.46095873286759415 0.49540135217505166 0.74321528826195049 0.55168374268255016 0.70886144425674513 0.52247797009667785 0.33113585201895662 0.48421915636627999 0.47111050755478118 0.12364410889992818 0.32776741714995655 0.33015194808566828 0.33980092790092564 0.58265546993953821 33:1 41:1 44:1 45:1 47:1 48:2 49:1 51:1 52:2 53:2 54:3 55:4 56:3 57:1 59:2 60:2 61:3 62:4 63:2 64:1 65:1 67:1 68:3 69:3 73:1 75:1 76:3 81:1 83:1 84:1 85:3 86:2 87:1 88:1 89:2 91:2 92:3 93:3 94:2 95:2 96:3 103:2 104:2 112:3 113:2 119:1 120:2 121:2 123:3 124:1 125:1 126:3 127:3 128:2 131:3 132:2 133:3 134:3 135:2 140:2 142:1 
-0 -0.0087885010790565068 -0 0.087758326966511549 0.080576138756953006 0.21476278226520432 0 0 0 0 0.015903425843235709 0 0 0 0 0 0 0 0 0 42:1 43:1 45:1 47:3 48:2 50:3 51:3 52:2 53:2 54:2 55:2 56:1 58:3 59:3 60:3 61:3 62:1 66:3 67:2 68:1 69:1 74:2 75:2 82:2 83:3 84:1 85:2 90:1 91:2 92:4 93:3 94:2 95:2 96:2 100:1 101:1 102:4 103:2 104:2 110:2 111:2 112:3 118:1 119:2 120:2 121:1 122:4 123:2 124:1 125:2 126:2 127:1 129:1 130:3 131:3 132:2 133:3 134:1 138:1 139:2 140:4 141:1 
-0.99224139962889346 -1 -0.7849104562336372 1 0.89342695269111216 0.76628192006406881 0.59288319673950651 0.825004768724792 0.6104468528694823 0.50099943033618033 0.86185371124281918 0.52078169892136128 0.37759655551479904 0.53858485545410983 0.64964692790563117 0.081774831196507067 0.39204384667733699 0.65916003747506069 0.51030140979302663 0.33692205641034251 37:2 44:3 45:3 46:3 47:2 48:1 52:3 53:2 54:2 55:2 56:2 60:1 61:2 65:1 68:1 69:3 73:1 75:2 76:3 77:2 78:3 84:1 85:1 86:2 87:2 88:3 95:1 96:3 104:3 108:1 112:3 115:1 116:2 117:3 118:3 119:2 120:2 121:1 123:1 124:3 125:3 126:2 127:2 128:2 
-0.18712964857546088 -1 -0.18517076173932859 0.60634229177432786 0.093584287825243848 0.18922816936951461 0.42012193495150096 0.2392785900584137 0.38392958225609802 0.13499570875940606 0.35171742908863296 0.2557437317865397 0.21488308515312335 0.33677949869269669 0.24251256208648023 0.048783608791533116 0.25044428660224277 0.11412105180073649 0.1086835205345162 0.031736558085201864 34:2 35:1 36:2 37:3 38:2 39:1 42:3 43:3 44:1 45:4 46:2 47:2 49:2 50:2 51:1 52:1 53:2 54:3 55:2 57:2 58:1 63:1 66:2 67:1 68:1 71:1 72:1 73:3 74:2 75:4 76:1 77:3 79:1 80:2 81:2 82:2 83:1 84:2 85:2 86:3 87:2 88:3 94:2 95:4 96:2 102:1 103:3 104:3 108:1 109:2 110:3 111:2 112:3 113:1 114:1 115:3 116:2 117:2 118:2 120:3 121:2 122:2 123:2 124:1 125:1 128:2 129:2 
-0 -0 -0 0.12873050701124578 0 0 0 0 0 0 0 0 0 0 0 0 0 0 0 0 42:1 43:1 45:1 47:3 48:2 50:3 51:3 52:2 53:2 54:2 55:2 56:1 58:3 59:3 60:3 61:3 62:1 66:3 67:2 68:1 69:1 74:2 75:2 82:2 83:3 84:2 85:1 86:1 90:1 91:2 92:2 93:2 94:3 95:2 100:1 101:2 102:4 103:3 110:1 111:3 112:1 118:4 119:3 121:1 122:3 123:3 124:1 125:2 126:2 127:2 130:3 131:3 132:2 133:3 134:1 138:1 139:2 140:4 141:1 
-0 -0 -0 0.17813808298764022 0 1 0.23274710785566416 0.28039193171283899 0.071802095590860371 0.13984151400497194 0.40225813049545711 0.1724774375973771 0.089062531161818684 0.19916340013992223 0.16261961471219211 0.0075542019611030808 0 0 0 0 34:1 35:1 36:1 37:2 38:1 41:1 42:3 43:2 44:3 45:3 46:2 47:2 49:1 50:2 51:2 52:1 53:2 54:2 55:2 57:1 58:3 59:1 63:1 66:3 67:2 68:1 74:3 75:4 76:1 77:4 78:1 80:1 82:1 83:1 84:2 85:2 86:3 87:1 94:1 95:3 102:3 103:4 109:1 110:2 111:2 113:1 114:2 115:3 116:2 117:2 118:1 119:2 121:1 122:3 123:2 124:2 125:3 126:1 
-0.036533645335635051 -0.055236696712777048 -0.42528214360605576 0.67945966884173348 0.36387963900634079 0.44819202351300363 0.4509764760813757 0.19813168733721845 0.16629372014530558 0.34795007962480562 0.61051215916282253 0.33206836426727504 0.23484746832834702 0.38797444230481615 0.4052515574912921 0 0.22781826322330584 0.32061272036366717 0.46453433094500624 0.21943711255914566 49:1 50:3 51:2 52:2 53:1 54:3 57:2 58:3 59:4 60:2 61:2 62:3 63:1 65:4 66:2 67:1 68:2 69:1 70:1 73:3 74:2 80:1 81:2 82:3 83:4 84:1 89:1 90:2 91:3 92:2 93:3 94:2 95:1 100:1 101:3 102:2 103:1 110:3 113:1 117:1 118:1 119:2 121:1 122:2 123:1 124:1 125:2 126:2 127:1 129:1 130:3 131:2 132:3 133:3 134:1 139:1 140:2 141:1 
-0.53869465267131111 -0.083369949974157448 -0 0 0.07560329627239111 0.099633479446646966 0.15559797204468889 0.35103818992267471 0.21046217927681091 0.28088027627520756 0.12533639438041902 0.21203138961999157 0.07938232644915573 0.064206084112272271 0.11444474056123539 0.051965721280783188 0.087028296834195593 0.46113898937678527 0.33413849955653091 0.32480608757048968 49:1 50:3 51:2 52:2 53:1 54:3 57:2 58:3 59:4 60:2 61:2 62:3 63:1 65:4 66:2 67:1 68:1 69:1 70:1 73:3 74:2 80:1 81:2 82:3 83:4 84:1 89:1 90:2 91:3 92:3 93:2 94:1 95:1 100:1 101:2 102:2 103:1 109:1 110:2 111:2 113:1 117:1 118:3 119:1 121:1 122:2 123:1 124:3 125:2 126:2 127:1 128:1 129:1 130:3 131:2 132:3 133:3 134:1 136:2 139:1 140:2 141:1 
-0.081043881995821909 -0.33842165641761096 -0.06985916054761078 0.62473923813480137 0.085923670017825429 0.18843486285413893 0.16953847880522482 0.097383181342572997 0.2578594664531208 0.10151900698933893 0.24020970283679755 0.10242440781480561 0.013863636170319096 0.13973299233749487 0 0.028600744983921997 0.048689107120192546 0.013773465910835499 0.018758474088758723 0.015582570535910846 43:2 45:2 47:1 48:3 50:1 51:3 52:2 53:2 54:1 55:3 56:3 58:1 59:2 60:2 61:3 62:2 66:1 67:2 68:2 69:1 75:3 80:2 82:2 83:2 84:2 85:1 86:2 90:1 91:3 92:2 93:2 94:2 95:1 96:3 101:1 102:2 103:2 104:2 111:3 112:3 118:1 119:3 120:3 122:1 123:2 124:2 125:2 126:3 127:1 128:3 131:2 132:2 133:3 134:3 135:2 139:1 140:2 142:1 
-0.053424377786205887 -0 -0.3741258189268884 0.39155133920732227 0.31222934511779021 0 0 0 0.35527599797145065 0.046154454968790087 0.083698833754191113 0.14769758055158608 0.023241585517750778 0.062149619455680233 0.13218132272154071 0.019250268178564456 0.13925059643285376 0.1296792082075994 0.17540437811181975 0.062654669283972342 34:1 35:1 37:2 38:3 39:1 42:1 43:3 44:2 45:3 46:2 47:3 48:2 50:1 51:2 53:2 54:2 55:3 56:3 59:2 67:4 68:2 74:3 75:2 76:1 77:3 78:2 83:1 84:1 85:1 86:2 87:3 94:2 95:4 96:1 102:2 103:2 104:2 109:1 110:3 111:4 112:2 114:2 115:1 116:3 117:3 118:3 119:2 120:1 122:2 123:3 124:2 125:2 126:3 
-0.41645152093388321 -0.19578018916784021 -0.14270918760316664 0.11729700982064051 0.49979768676454062 0.38591700326989575 0.23318545558684747 0.26616305691539693 0.27330108758031779 0.2508643464556477 0.56437730885292769 0.19482643454213791 0.10790501272157627 0.22715812960848694 0.30930365005361155 0.025263898451257403 0.11595210506852613 0.30836345480050298 0.4129749010486603 0.35501399989564003 42:1 43:1 45:1 47:2 48:3 50:3 51:2 52:1 53:2 54:3 55:1 56:1 58:4 59:2 60:2 61:1 62:2 66:3 67:2 68:1 74:2 75:1 80:1 82:2 83:3 84:2 85:1 86:1 88:2 91:3 92:3 93:2 94:2 95:1 96:1 100:1 101:1 102:2 103:1 109:3 110:2 111:2 118:2 119:2 121:2 122:3 123:2 125:2 126:3 127:1 130:3 131:3 132:2 133:3 134:1 138:1 139:2 140:4 141:1 
-0.35040192847998786 -0.43721692117357774 -0.053011074693291541 0.39605851362092848 0.4240591095866541 0.50304047881332481 0.40754145811481035 0.020472454188472003 0.18336445345106184 0.044082035031314935 0.22912474599332736 0.10670376296000422 0.056014864450490309 0.064054824456973081 0.18735676591835945 0.017327300304647401 0.1084327747852525 0.074700470547185996 0.18398079638891757 0.25303423080758253 34:1 35:2 36:1 37:3 38:1 41:1 42:3 43:2 44:3 45:2 46:3 47:1 49:3 50:2 51:3 52:1 53:1 54:3 55:1 57:2 58:3 62:1 63:2 65:2 66:3 67:2 71:1 72:1 73:3 74:3 75:2 76:2 77:2 78:1 80:2 81:3 82:1 83:2 84:1 85:3 86:2 87:1 88:3 93:2 94:3 95:3 96:2 101:1 102:1 103:3 108:1 109:3 110:4 111:1 113:1 114:1 115:2 116:3 117:1 118:2 121:1 122:3 123:2 124:3 125:2 129:1 130:2 
-0 -0 -0 0.45443413503107499 0 0.48167890767513227 0.46229639720561194 0.082197598983731884 0.021075287649124266 0 0.28510405468078553 0.11932285784862016 0.058512625685158526 0.12664749062576244 0.20102923494998118 0.030916477018386554 0.020093022685700374 0.034100399853332429 0 0.049714058405756684 35:2 36:2 37:1 38:2 42:1 43:3 44:3 45:2 46:3 47:3 48:1 51:4 52:2 55:2 56:3 58:2 59:3 60:1 66:2 67:3 68:1 69:1 74:3 75:3 76:2 77:2 78:2 82:1 83:2 84:1 85:2 86:3 87:2 94:1 95:3 96:3 102:1 103:2 104:2 110:3 111:2 112:2 113:1 114:3 115:3 116:2 117:4 118:3 119:2 120:3 121:1 122:2 123:3 124:2 125:2 126:1 127:1 128:1 
-0 -0.28410269709102148 -0 0 0 0.19988885962842812 0 0 0 0 0 0 0 0 0 0 0 0 0 0 49:1 50:3 51:2 52:2 53:1 54:3 57:2 58:3 59:4 60:2 61:2 62:3 63:1 65:4 66:2 67:1 68:1 69:2 73:3 74:2 81:2 82:3 83:4 84:1 89:1 90:2 91:3 92:3 93:2 100:1 101:2 102:2 103:1 104:1 109:1 110:4 111:2 112:3 113:1 117:2 118:2 119:2 120:2 121:1 122:2 123:1 124:2 125:1 126:2 127:1 129:1 130:3 131:2 132:3 133:3 134:1 139:1 140:2 141:1 
-0.48658317372693932 -0.53955083087150302 -0.23877670177142546 0.74567102608554159 0.27669015421312732 0.49112809566335258 0.19234703280146212 0.096549434209026452 0.23144450740388531 0.22920970054838891 0.16354775322534201 0.17728622110801531 0.11566028915905881 0.15449964746075595 0.20290707726041146 0.012284030699439015 0.16714638387396444 0.33853539891110479 0.1933472352400093 0.17897345057819031 47:1 48:1 49:2 50:3 51:2 52:3 53:3 54:2 55:2 56:3 58:2 59:2 60:3 61:1 62:1 63:1 66:3 73:2 74:2 81:2 82:2 83:3 84:2 85:1 90:2 91:1 92:3 93:3 94:4 95:1 101:2 102:2 103:2 110:2 111:2 112:1 117:2 118:2 119:2 121:2 122:2 123:2 124:1 125:3 126:3 127:3 129:1 130:1 131:2 132:3 133:2 134:2 135:1 140:1 141:1 
-0.46387767760871335 -1 -0.27663515442873532 0.4318199741230298 0.33686206963018528 0.092405156125235102 0.2471862088113308 0 0 0.04101494455351689 0 0 0 0 0 0.011182754673131722 0.16584344342319887 0.29040021935361499 0.22354735034906162 0.18420465816471635 34:1 35:1 36:1 37:2 38:1 41:1 42:3 43:2 44:3 45:3 46:2 47:2 49:1 50:2 51:2 52:1 53:2 54:2 55:2 57:1 58:3 59:1 63:1 66:2 67:1 68:1 73:1 74:2 75:2 76:1 77:4 78:1 80:1 82:2 84:2 85:2 86:3 87:1 94:1 95:3 102:3 103:4 109:1 110:2 111:2 114:1 115:3 116:2 117:2 118:1 119:2 122:3 123:2 124:2 125:3 126:1 
-0 -0 -0.030392588996844952 0.29401850507438831 0.10489148317373867 0 0 0 0.051088548239163027 0 0.18830746014198427 0 0.049261605792445748 0 0.04268028566622991 0.0074156750265279119 0.020266370728463975 0.011922364979777899 0 0.0020678245907563416 49:1 50:3 51:2 52:2 53:1 54:3 55:2 57:2 58:3 59:4 60:3 61:3 63:2 65:4 66:2 67:1 68:1 69:1 70:1 73:3 74:2 80:1 81:2 82:3 83:4 84:1 88:1 89:1 90:2 91:3 92:3 93:2 94:1 95:1 100:1 101:3 102:2 103:1 109:1 110:3 111:2 113:1 117:1 118:2 119:2 121:1 122:2 123:1 124:2 125:2 126:2 127:1 128:1 129:1 130:3 131:2 132:3 133:3 134:1 136:1 139:1 140:2 141:1 
-0.45887725807199287 -1 -0.44060365006882457 0.56624405239703635 0.50025524507539099 0.75622933112698798 0.47183469182210647 0.48198062708143752 0.29845786962454107 0.5523578894815806 0.81783716606870871 0.35514384355694012 0.458493967246698 0.62567150878029709 0.61481485899328903 0.12278320916127812 0.59655475368191613 0.66870125555533055 0.4291420309305426 0.19854958126376754 34:1 36:1 37:3 38:1 41:1 42:1 43:3 44:2 45:3 46:2 47:1 49:2 50:2 51:1 52:1 53:2 54:2 55:1 57:1 58:2 65:2 66:2 71:1 72:1 73:2 74:4 75:3 76:2 77:2 80:1 81:2 82:3 83:1 84:2 85:3 88:3 92:2 93:2 94:3 95:1 96:3 101:3 102:2 103:3 104:2 108:2 109:3 110:2 112:2 113:1 114:2 115:2 116:2 117:2 119:1 120:2 121:1 122:3 123:2 124:2 127:1 128:1 129:3 130:1 136:2 144:2 152:3 
-0.0097553820387862415 -0.77887673833540094 -0.062438470068993036 0.74927138920176206 0 0.77706720403551266 0.43681400351571914 0.42861200559626583 0.27989528976192446 0.381930270834202 0.25143268954090586 0.39732308519293674 0.3006523039268994 0.48524595459845732 0.60795329987558966 0.068616711268536953 0.34204800670184277 0.35468338278926809 0.36417255088838046 0 45:2 47:1 48:3 51:1 52:2 53:2 54:1 55:3 56:2 59:2 60:2 61:3 62:2 66:1 67:3 68:2 74:1 75:2 76:1 83:2 84:3 85:4 86:2 87:1 91:2 92:2 93:3 94:2 95:2 96:3 103:3 104:3 111:3 112:3 118:1 119:2 120:2 122:1 123:3 124:1 125:2 126:2 127:2 128:1 131:3 132:2 133:3 134:3 135:2 140:2 142:1 
-0.18544644733785842 -1 -0 0.87829002360050867 0.086386190698506546 1 0.090250376938124821 0.067917471546097369 0.17413389750290689 0.12577510649019155 0.099905591373894473 0 0.12984881275960322 0 0.10580943116854331 0 0 0 0 0 35:2 37:2 38:1 41:1 42:3 43:2 44:2 45:2 46:3 47:3 48:1 49:2 50:2 51:3 52:1 53:2 54:2 55:2 56:2 58:1 59:2 63:1 64:1 66:1 67:2 68:1 73:1 74:3 75:2 76:4 77:2 78:1 81:1 82:1 83:2 84:1 85:2 86:3 87:1 93:1 94:2 95:2 102:2 103:3 104:2 105:2 110:3 111:2 112:1 113:2 114:2 115:3 116:2 117:4 118:1 119:2 120:2 121:1 122:2 123:2 124:3 125:2 126:2 
-0.47861340984091671 -0.45119425547511754 -0.34852383443877205 -0.5422206498199722 0.46473003956189035 0.71772453305190187 0.49076913933002214 0.26849037017363447 0.57027233410095746 0.21887273238055746 0.58809370306100062 0.48349186093385876 0.081006034800956722 0.4907162122185128 0.50384548616283376 0.086304157399286763 0.32717257195504462 0.3353400542072979 0.39489320305978926 0.27546495187127135 1:2 2:2 3:2 4:2 5:2 6:2 7:2 8:2 50:1 51:1 52:3 53:3 54:3 55:4 56:1 58:3 59:4 60:4 61:3 62:4 63:3 64:2 65:3 66:4 67:4 68:1 73:4 74:4 75:1 81:4 82:4 83:2 84:2 85:4 86:3 87:2 89:4 90:4 91:4 92:4 93:4 94:4 95:4 96:3 97:4 98:4 99:1 102:4 103:4 104:4 105:4 106:4 110:2 111:4 112:4 113:3 114:4 115:1 118:3 119:4 120:3 121:1 122:4 123:4 124:2 125:3 126:4 127:4 128:1 130:2 131:4 132:4 133:4 134:4 135:1 139:1 140:1 141:2 142:1 161:2 162:2 163:2 164:2 165:2 166:2 167:2 168:2 
-0.11701659928958473 -0.19612368306382427 -0 -0 0.031580450651998306 0.3039051309520473 0 0.22486663020949471 0.80073872382825195 0 0.086314572849084378 0.088654694356970348 0.026626853308440349 0 0.054179717595298299 0.053597372166072146 0.035001718430265075 0 0 0.0034119488944457255 36:1 37:2 38:2 40:1 43:2 44:2 45:3 46:3 47:2 48:2 51:2 52:1 53:1 54:2 55:2 56:3 58:2 59:2 64:2 66:2 67:1 73:1 74:2 75:2 76:3 77:3 78:3 79:3 81:3 82:3 83:1 84:1 85:1 86:2 87:2 88:1 89:2 90:3 91:1 95:2 96:2 97:3 98:1 99:1 103:2 104:2 105:2 106:3 107:2 108:1 111:3 112:2 113:1 114:1 115:3 116:2 117:3 118:4 119:3 120:3 122:1 123:3 124:2 125:3 126:2 127:2 
-0.18650987864744992 -0.045302981389612522 -0.73484916269642975 -0.046314485208053272 0.098781185021171725 0.53831297776253051 0.24198225721644903 0.23740741944983779 0.42107068371237283 0.45576901323057123 0.34439961066346936 0.13008763034705492 0.17921632919368086 0.33605971919856814 0.30775962038735111 0.044619064092563873 0.24754888976267991 0.31086558322619856 0.39764602995269144 0 38:1 44:1 45:2 46:2 47:2 48:1 52:2 53:3 54:1 55:2 56:3 59:2 60:2 61:1 66:1 67:3 68:1 74:1 75:2 76:2 77:4 78:2 79:3 82:1 83:2 84:2 85:1 86:2 87:3 88:2 90:1 91:3 92:1 95:2 96:3 98:4 99:2 103:2 104:3 105:1 106:2 107:3 108:1 109:1 111:2 112:3 115:2 116:1 117:3 118:2 119:2 120:2 124:1 125:3 126:2 127:1 128:1 
-0 -0.17216297597040128 -0.12329287109310423 -0.48570404705047543 0.15702823802878124 0.102970839302612 0 0 0 0 0 0 0 0 0 0 0.20028881235010143 0.0093780540996304101 0 0.13334255571321174 51:1 52:1 53:2 54:2 55:3 56:4 58:2 59:2 60:2 61:1 62:1 63:3 66:3 67:2 73:2 74:3 81:3 82:1 83:1 84:2 85:2 86:2 87:2 89:2 90:3 91:2 92:4 93:4 94:4 95:4 96:2 97:3 98:2 102:2 103:4 104:2 105:1 106:2 110:1 111:3 112:2 113:2 114:3 118:1 119:2 120:1 121:1 122:3 123:2 124:1 125:1 126:2 127:3 128:1 130:1 131:3 132:3 133:2 134:2 135:1 140:1 141:2 
-0.32071047061682689 -0.24029181573974309 -0.17308948435114255 -0.014328051216561567 0.0587943824036797 0.26882449532207786 0.41776595243880688 0.35834586178920108 0.49025250772927437 0.77578680711735637 0.24057703856161602 0.81192690290880776 0 0.55306585552926624 0.84975839695577571 0.023587070777961947 0.46270337476869411 0.51734967118824304 0.59431995378498537 0.034144731206390694 47:2 51:1 53:3 54:1 56:1 58:1 59:2 60:3 61:1 62:1 65:1 66:2 67:2 68:1 69:2 73:3 74:2 81:2 82:2 83:1 84:1 85:2 86:1 89:2 90:2 91:1 92:3 93:2 94:3 95:1 97:2 98:2 101:1 102:2 105:2 106:2 110:3 111:3 112:2 113:3 114:3 115:1 117:1 118:3 119:1 122:3 123:2 124:1 125:4 126:2 127:1 131:3 132:2 133:3 134:1 139:1 140:4 141:1 
-0 -0.32839506188188994 -0.45771012420749863 -0.29960342498135528 0.13718852971994303 0.85311850449825022 0 0 0 0.056626647750889547 0.31973605488857576 0.036656856572772581 0 0.15977293850154664 0.021700949085415974 0 0.11765401043238763 0.35543044560261933 0.22649580967759492 0 51:1 52:1 53:3 54:3 55:1 58:2 59:2 60:3 61:2 62:2 65:1 66:3 67:2 73:2 74:2 81:3 82:3 83:1 84:1 85:1 86:2 89:2 90:2 91:2 92:2 93:4 94:2 97:3 98:2 101:3 102:2 103:1 104:2 105:1 106:2 109:1 110:1 111:2 112:1 113:2 114:3 117:1 118:2 119:3 121:1 122:3 123:2 125:3 126:2 127:1 130:2 131:2 132:3 133:2 134:1 139:1 140:1 
-0.90703622901294878 -1 -0.68147057718880877 -0.55476144099671465 0.57908071790988269 1 0.92429799282150504 0.54574775729637148 1 0.71646369914311903 0.76542820273833689 0.62102044073323204 0.56060118644116597 0.81747861833340574 0.73173725011905622 0.077502693258350144 0.65316201487012993 0.67194993320219365 0.48456708583785763 0.64045567439119044 50:1 52:3 53:1 54:1 55:1 58:2 59:3 60:3 61:2 62:2 63:4 64:2 66:2 67:2 70:1 71:3 72:1 73:1 74:2 75:3 78:2 79:2 82:3 83:2 84:2 85:2 86:3 87:1 89:2 90:2 91:4 92:3 93:3 94:1 97:2 98:3 99:1 100:2 101:3 102:2 103:3 105:2 106:2 110:2 111:3 112:3 113:3 114:2 119:3 120:1 121:2 122:3 123:3 124:1 125:1 126:2 127:3 128:1 130:2 131:2 132:2 133:3 134:3 139:1 140:1 141:1 
-0.61106930469676191 -0.35574324730709039 -0.15640218072737194 -0.61431997640140801 0.54186136789431394 0.85347322617272858 0.66521346122682445 0.52252500937922841 0.61288626513535727 0.48529934877828429 1 0.36557097365727553 0.1712660498985864 0.47438720601769552 0.5767748019785508 0.051307383786307108 0.22462556218671897 0.41320361147791734 0.16469268560113148 0.25432807474256908 38:1 39:2 40:1 43:1 45:2 46:3 47:2 48:2 51:1 52:3 53:3 54:2 55:1 56:3 59:1 60:2 61:2 67:3 68:2 69:2 74:2 75:1 76:2 77:4 78:3 79:1 82:2 83:3 84:2 85:1 86:1 87:2 88:2 90:3 91:3 92:2 95:1 96:2 99:3 100:2 104:3 106:2 107:2 108:2 109:1 112:2 114:3 115:3 116:3 117:3 118:2 119:3 120:3 123:1 125:2 126:3 127:3 128:2 
-0.25524025692326152 -0 -0.39138871367903727 -0 0.040919589660588028 0.49497985816632367 0.59468161150128884 0.73288877747480474 1 1 0.15038426732727464 0.75732892535254304 0.64837409795882561 0.58547682710880611 0.63166979759523267 0.21658098959455377 0.40493952361315227 0.1454407000775236 0.26316554847832979 0.0019643886958726929 41:1 47:1 48:2 49:1 53:1 54:2 55:2 56:2 59:1 60:1 61:2 62:2 63:1 67:3 68:2 69:1 74:2 75:2 81:1 82:3 83:3 85:1 86:3 87:2 88:2 89:3 90:2 91:2 92:3 93:3 94:2 95:3 96:3 97:3 98:3 99:1 103:2 104:3 105:3 106:2 107:1 111:3 112:2 113:3 114:3 115:2 119:1 120:2 123:2 124:3 125:2 126:2 127:3 128:1 131:3 132:3 133:2 134:3 135:2 140:1 141:1 142:1 
-0.52830699570063844 -0.2338498399234672 -0.30161049307311599 -0.59159739211067186 0.65363965180547479 0.1929440799742243 0.41635258204669057 0.31128031894114444 0.29091557964543924 0.53823326754821299 0.79545347986198134 0.2547631299037238 0.034143712213811385 0.07732336336314502 0.21330893764950126 0.056602093828397149 0.24345868893364248 0.22144919706846947 0.58283661072519377 0.34106873836600043 45:1 47:1 51:2 52:2 53:1 54:3 55:1 56:1 57:1 58:1 59:2 60:3 61:3 62:2 63:1 65:3 66:1 67:1 68:1 73:3 74:4 80:1 81:3 82:2 84:1 85:1 86:1 88:1 89:2 90:2 91:2 92:2 93:3 94:2 95:1 96:1 97:3 98:1 101:2 102:2 103:1 104:1 105:3 106:3 110:3 113:2 114:2 115:1 118:2 120:1 121:1 122:2 123:3 124:1 125:4 126:2 128:1 131:3 132:3 133:1 134:1 139:1 140:3 141:1 
-0.11679818344931582 -0.22507018995380274 -0.26159424638877316 -0.96101911807642526 0.15953992378247664 0.54533099301683885 0.20138871484612175 0 0.085862921064622816 0 0.16995210982723363 0 0 0 0.0097527014766539636 0 0 0 0 0.050831276621967278 45:1 47:1 51:1 52:2 53:3 54:3 55:3 57:3 58:3 59:2 60:2 61:2 62:2 65:3 66:3 67:1 68:1 69:1 73:3 74:1 81:1 82:2 83:2 84:1 86:1 89:3 90:3 91:2 92:2 93:3 94:3 95:1 97:2 98:1 101:1 102:3 103:3 105:3 110:2 111:4 112:3 113:3 114:2 118:2 119:2 121:1 122:4 123:1 124:1 125:2 126:2 127:1 131:3 132:2 133:3 134:1 139:1 140:4 141:1 
-0.10732065226500387 -0.38508149996787955 -0.39449472826538362 -0.58392652478702289 0.29412489420107879 1 0.46733643164456784 0.11064049505412513 0 0.3883987840919817 0.41422694474751931 0.15224528264558285 0.17918548243057444 0.39055179160650949 0.16055447903580497 0 0.29883717253890196 0.33777896161255361 0.42771487680086467 0.038785593814934155 37:2 38:2 43:2 44:2 45:2 46:2 47:4 50:1 51:2 52:2 53:1 55:2 56:1 58:2 59:2 60:1 65:1 66:1 67:2 69:1 73:1 74:2 75:2 76:3 77:1 78:4 79:1 81:1 82:3 83:1 85:2 86:2 87:3 89:1 90:2 91:2 94:2 95:3 96:1 97:2 98:2 102:2 103:2 104:2 106:3 107:2 110:1 111:3 112:1 114:3 115:2 116:2 117:2 118:2 119:1 120:2 123:1 124:2 125:3 126:2 127:1 
-0 -0 -0 -0 0 0.018476961518117115 0 0 0 0 0 0 0 0 0 0 0 0 0 0 51:1 52:1 53:3 54:3 55:1 58:2 59:2 60:3 61:2 62:2 65:1 66:3 67:2 73:2 74:2 81:3 82:3 83:1 84:1 85:1 86:2 89:2 90:2 91:2 92:2 93:4 94:2 97:3 98:2 101:2 102:2 103:1 105:1 106:2 109:1 110:3 111:1 112:2 113:2 114:3 117:2 118:2 119:2 120:1 121:1 122:3 123:2 124:1 125:4 126:2 127:1 130:2 131:2 132:2 133:3 134:2 139:1 140:2 141:1 
-0.91052070604571322 -1 -0.58418582137100039 -1 0.9643962933807102 1 1 0.93757183201170224 0.74108839447280395 0.72316670635783975 1 0.75973170699268011 0.5199584968587857 0.87281479425823438 0.82879444735549868 0.16390090065259463 0.82284693981709789 0.80500405352211191 0.66677060928679932 0.37625250256136827 35:2 37:2 38:2 42:2 43:2 44:4 45:3 46:1 47:1 49:1 50:2 51:3 52:2 54:3 57:2 59:1 65:3 72:1 73:3 74:2 75:2 76:2 77:3 80:2 81:4 82:2 84:1 85:1 86:2 88:2 89:3 90:1 93:1 94:3 97:2 98:1 101:1 102:1 104:1 105:3 108:1 109:2 110:1 112:3 113:2 114:2 115:3 116:2 117:3 118:2 120:2 121:1 122:3 123:2 124:1 125:1 128:2 136:1 144:1 152:2 
-0.66582108830525755 -0.416221779546884 -0 -1 0.5177348960576057 1 0.15534921371359919 0.14815071599185317 0.018664758978581913 0 0.63792203055111396 0 0 0 0.0039637589972073188 0.026624174793305644 0 0 0.021396430718178039 0.59834189954673589 47:1 48:3 52:1 53:3 54:1 55:2 56:2 59:3 60:2 61:2 62:3 63:1 66:1 67:3 68:3 75:4 82:2 83:2 85:2 86:2 87:1 88:1 89:2 90:2 91:3 92:2 93:2 94:2 95:3 96:2 98:3 99:2 100:1 103:1 104:1 106:2 107:2 111:1 112:3 114:2 115:2 119:3 120:2 122:2 123:2 124:3 125:2 126:2 127:2 128:2 131:3 132:2 133:3 134:2 135:2 140:1 141:1 142:1 
-0.63092339300326516 -0.90943642184381424 -0.38820927683945378 -0.76406962139334567 0.55669713767543361 1 0.9023598309812273 0.61545314648658156 0.27179940315547024 0.8101751843150492 0.48934324357879294 0.45461954291534962 0.37561089750013565 0.63865939813826067 0.69302093821925959 0.036291702913474132 0.43383750913024016 0.81698037231344267 0.68136123909556079 0.21785744685630348 37:3 38:1 39:1 42:1 43:3 44:2 45:2 46:3 50:2 51:1 52:2 53:1 54:2 57:2 58:2 59:1 65:1 66:2 73:3 74:2 75:3 76:3 77:2 78:2 82:3 83:1 85:3 86:2 88:1 89:2 90:2 93:1 94:2 95:1 96:1 97:2 98:1 102:2 103:1 105:2 106:2 108:1 109:1 110:3 111:1 113:3 114:2 115:2 116:3 117:2 118:3 122:3 123:3 124:2 125:3 126:1 
-0.19871017470638097 -0.42608580059238915 -0 -0.62972343533825292 0.13837956835724349 0.39185247884993657 0.67961129088469885 0.39600119452893728 0.35525672382755691 0.27268688232380478 0.21703684608520574 0.44969820251371412 0.25449343240797245 0.48433152716195177 0.47385556792962358 0.052050906208485265 0.40287040127651241 0.059669389012780294 0.19080251122526673 0.20214207762035274 37:2 38:2 43:1 44:3 45:3 46:1 47:3 51:1 52:2 53:1 54:1 55:1 56:2 58:1 59:3 60:1 64:1 66:1 67:2 74:2 75:3 76:3 77:1 78:3 79:2 81:1 82:2 83:2 85:1 86:2 87:4 88:2 89:1 90:2 91:1 95:2 96:4 98:4 99:2 103:1 104:3 105:1 106:3 107:2 108:2 111:3 112:3 115:4 116:3 117:2 118:2 119:2 120:4 124:2 125:2 126:4 127:2 128:2 
-0.22408707088437654 -0.085116781556302437 -0.13740003710824394 -0.59846525100676851 0 0.32492550886005617 0.41396915761247344 0.3927702685184577 0.10359698481014877 0.51930191838129935 0 0.14194282900263935 0.23765235776953469 0.26012299603664241 0.35324220742741752 0.0082505730625617967 0.39095475505811306 0.2911034949063534 0.082303710510789815 0.28817779562185991 51:1 52:1 53:3 54:3 55:1 58:2 59:2 60:3 61:2 62:2 65:1 66:3 67:2 73:2 74:2 80:1 81:3 82:3 83:1 84:1 85:1 86:1 88:1 89:2 90:2 91:2 92:2 93:2 94:3 97:3 98:2 101:2 102:2 103:1 104:1 105:1 106:2 109:1 110:3 111:1 112:1 113:2 114:3 117:2 118:2 119:2 120:1 121:1 122:3 123:2 124:1 125:4 126:2 127:1 128:2 130:2 131:2 132:3 133:2 134:1 139:1 140:1 
-0 -0 -0.69055836732867881 -0 0.010882904870824621 0.30270868567351411 0 0 0 0.15970422264311612 0.25226529914156298 0 0 0 0 0 0 0 0.0029960618541094281 0 37:2 38:3 39:1 43:1 44:2 45:4 46:2 47:2 48:1 51:2 52:2 53:1 54:3 55:2 56:1 59:2 60:2 67:3 68:2 69:2 73:1 74:2 75:1 76:2 77:3 78:2 81:1 82:2 83:3 84:1 86:3 87:3 89:3 90:3 91:3 94:2 95:3 96:1 97:2 98:3 99:2 102:1 103:3 104:1 105:1 106:2 107:2 108:1 110:1 111:2 112:2 114:2 115:3 116:1 117:3 118:2 119:2 120:1 122:1 123:2 124:2 125:2 126:2 
-0 -0.092899239612865697 -0 -0.86958795509966313 0 0.33949771962078845 0 0 0 0 0 0 0 0 0 0 0 0 0 0 45:2 47:1 48:2 51:2 52:3 53:2 54:2 55:3 56:2 57:1 58:1 59:2 60:2 61:2 62:3 63:2 64:1 65:2 66:2 67:2 68:1 73:3 74:3 75:1 81:1 82:2 83:1 84:1 85:1 86:2 89:3 90:3 91:4 92:3 93:3 94:1 95:3 96:1 97:4 102:1 103:2 104:1 105:1 106:2 110:1 111:4 112:2 113:1 114:2 115:1 118:1 119:3 120:2 121:1 122:2 123:3 124:1 125:2 126:4 127:2 128:1 131:3 132:2 133:3 134:3 135:2 140:2 142:1 
-0.78984760716685598 -1 -1 -1 0.76246451727569931 0.9593616636276463 0.32696363407715989 0.20390686299449509 0.53383132740948758 0.45300364884636407 0.51173803736938039 0.31732335138869022 0.39919750602703397 0.5273794151220994 0.52107363262605721 0.037986312757154979 0.55961670935047081 0.563187608394074 0.42157237487093691 0.38389355769356936 45:3 46:2 47:3 48:2 51:1 52:2 53:4 54:2 55:1 56:2 59:1 60:2 61:2 64:1 65:1 67:1 68:2 75:2 76:3 77:2 78:3 79:2 80:1 83:2 84:3 85:1 86:2 87:2 88:2 90:1 91:2 92:1 95:2 96:3 98:1 99:3 100:1 103:2 104:3 107:1 108:4 109:1 111:1 112:3 115:2 116:2 117:3 118:2 119:2 120:4 125:2 126:1 127:4 128:2 
-0.063003260649001705 -0.35227137816758436 -0.044277288741433454 -1 0.092416561861002833 1 0.56358630747754268 0.10882890312689204 0.41186192551041351 0 0.098058050185905965 0.28946922790818647 0.10424603343706444 0.24975012718343084 0.21868864819631853 0 0.10394113827010416 0.008862163699047642 0 0.1030806974868492 36:1 38:2 43:1 44:2 45:2 46:2 47:1 48:1 50:2 51:3 52:2 53:1 54:2 55:3 56:3 57:1 58:3 59:2 64:1 65:2 66:3 67:1 68:1 69:2 73:2 74:1 75:3 76:3 77:3 78:3 79:1 81:2 82:2 83:2 85:1 86:3 87:3 89:2 94:1 95:4 96:2 97:2 98:1 102:1 103:2 104:1 105:2 106:3 107:1 110:2 111:2 112:4 113:2 114:2 115:2 116:2 117:2 118:2 119:3 120:2 123:2 124:2 125:3 126:3 127:1 128:1 
-0 -0.062892258918342284 -0.29150360727282515 -0 0 0.64495689049533522 0 0 0.0044326712915815983 0 0 0 0 0 0 0 0 0 0 0 45:2 47:1 51:1 52:3 53:3 54:2 55:2 56:2 58:1 59:2 60:2 61:2 62:3 65:3 66:1 67:2 68:1 69:2 73:2 74:2 75:1 81:1 82:3 83:1 84:1 85:2 86:1 89:3 90:3 91:2 92:2 93:4 94:1 95:2 97:2 98:2 101:1 102:4 103:2 105:2 106:2 110:3 111:3 113:3 114:3 115:1 117:2 118:3 119:3 122:3 123:2 124:1 125:4 126:3 127:1 131:3 132:2 133:3 134:1 139:1 140:4 141:1 
-0.1143073842054291 -0.34225759275579182 -0 -1 0.059323903704365855 1 0.62513076645371113 0 0.16061611942020979 0 0 0.049546203397163743 0.20828966460767845 0.091769596449201296 0.19046537302118202 0 0.048518708343247167 0 0 0.026262249030412372 36:1 37:3 38:1 39:2 42:1 43:1 44:2 45:2 46:3 47:1 48:1 50:3 51:2 52:1 53:2 54:3 55:1 56:2 57:2 58:2 59:2 65:2 66:2 67:1 68:1 73:2 74:1 75:2 76:3 77:2 78:1 79:1 81:2 82:2 83:2 84:1 85:2 86:2 87:3 89:1 90:3 94:2 95:3 96:1 97:2 98:1 102:2 103:3 104:2 105:2 106:1 107:1 110:4 111:2 112:1 113:3 114:2 115:2 116:2 117:3 118:1 119:3 121:2 122:3 123:2 124:2 125:4 126:2 
-0.057392545855466673 -0 -0 -0.42741724206554077 0 1 0.15431494263270426 0.30588280028335402 0 0.20601961965134447 0.64740937739274207 0.21491682661539266 0 0.14287679372991693 0.097853671801635456 0.0096591061945657392 0 0.10545237858267244 0.040819952217442369 0.0082786573107969785 37:3 38:1 39:1 42:1 43:1 44:2 45:2 46:3 50:3 51:2 52:2 53:1 54:2 57:2 58:2 59:2 66:2 67:2 68:1 73:2 74:2 75:4 76:3 77:3 78:1 81:1 82:3 84:2 85:2 86:2 87:1 89:3 90:1 93:1 94:2 95:1 97:1 98:2 102:2 103:1 105:1 106:3 108:1 109:1 110:3 111:1 112:1 113:3 114:2 115:3 116:3 117:2 118:3 122:3 123:3 124:2 125:3 126:1 
-0.17451047811302681 -0.94434167958678961 -0.24914812711920592 -1 0.1651901428359171 0.58745793100811161 0.43029915879174085 0.47924504725975436 0.51059407307285087 0 0.65229136839120738 0.27225012449708513 0 0.42516522628461462 0.32147110125461681 0.0092285982247247034 0 0.23212263270921007 0.073046758273159956 0.050507036160090411 45:3 46:2 47:3 48:2 51:1 52:2 53:4 54:2 55:1 56:2 59:1 60:2 61:2 64:1 65:1 67:2 68:2 75:3 76:3 77:2 78:3 79:2 80:1 82:1 83:3 84:3 85:1 86:2 87:2 88:2 90:1 91:2 92:1 95:2 96:3 99:2 100:1 103:1 104:3 107:4 108:1 111:2 112:3 115:1 116:2 117:3 118:2 119:2 120:4 121:1 125:2 126:1 127:2 128:2 
-0.25261018762329446 -0.22501903138672322 -0 -0 0 1 0.58913336131703775 0.16829433801854746 0.73947513820695565 0.2970390396327105 0.40068518615616305 0.28746935647848137 0.72426186109404078 0.58890791840708379 0.47437570597958734 0.030524855153203564 0.32767668968084512 0 0.053463455626874982 0 51:1 52:1 53:2 54:2 55:3 56:1 58:2 59:2 60:2 61:1 62:1 63:3 64:1 66:3 67:2 73:2 74:3 81:3 82:1 83:1 84:2 85:2 89:2 90:3 91:2 92:2 93:1 94:3 95:3 97:3 98:2 102:2 103:4 104:2 105:1 106:2 110:1 111:3 112:2 113:2 114:3 118:1 119:2 120:2 121:1 122:3 123:2 124:1 125:1 126:2 127:3 128:1 130:1 131:3 132:3 133:2 134:2 135:1 140:1 141:2 
-0 -0 -0 -0 0 0 0 0 0 0 0.3388006648411796 0 0.054435711902908052 0 0 0 0 0 0 0 36:1 37:3 38:1 39:2 42:1 43:1 44:2 45:2 46:3 47:1 48:1 50:3 51:2 52:1 53:2 54:3 55:1 56:2 57:2 58:2 59:2 65:3 66:3 67:1 68:1 73:3 74:1 75:3 76:3 77:2 78:1 79:1 81:2 82:3 83:1 84:1 85:2 86:2 87:3 89:3 90:2 94:2 95:3 96:2 97:2 98:2 102:2 103:2 104:1 105:3 106:2 108:1 109:1 110:3 111:1 112:1 113:2 114:2 115:2 116:2 117:4 118:1 119:3 120:1 121:1 122:2 123:2 124:3 125:2 126:2 
-0.37301032612529927 -0.88545140131279976 -0.31063405508494107 -1 0.44446478261704286 0.15047618427714329 0 0 0.56172586230351906 0.24308171565134595 0.19061969595049902 0.21980159563862678 0.068178842038541576 0.2329119834403009 0.21045557525329958 0 0.40024722530704981 0.22302439084826539 0.24485943485501593 0.1940383913779794 35:2 36:1 37:2 38:2 39:1 42:1 43:1 44:2 45:3 46:3 47:2 50:2 51:3 52:2 53:1 54:3 55:2 57:1 59:1 65:1 66:1 67:1 73:3 74:1 75:2 76:2 77:2 78:2 81:3 82:3 83:1 84:1 85:2 86:2 87:2 89:3 90:1 93:1 94:3 95:1 97:1 98:1 102:3 103:4 105:2 107:1 109:1 110:2 111:2 113:2 114:3 115:3 116:2 117:2 118:1 119:2 121:1 122:3 123:2 124:2 125:3 126:1 
-0 -0 -0 -0 0 0 0.14500254906029084 0.21883351960019704 0.027352277581635921 0 0 0.036659204008439389 0.35362707525994641 0.14872279161278545 0 0 0 0 0.081790600909813174 0 47:2 51:1 53:3 54:1 56:1 58:1 59:2 60:3 61:1 62:1 65:3 66:1 67:2 68:1 69:1 73:2 74:2 75:1 81:1 82:3 83:1 85:2 86:1 89:3 90:3 91:2 92:2 93:2 94:2 95:1 97:2 98:2 101:1 102:2 105:2 106:2 110:3 111:3 112:2 113:3 114:3 115:1 117:1 118:3 119:1 122:3 123:2 124:1 125:4 126:2 127:1 131:3 132:2 133:3 134:1 139:1 140:4 141:1 
-0.32554835690056422 -0.74430138323810946 -1 -1 0.23237743964527119 1 0.57720683131343764 0.62209962631030746 1 0.9624138593612509 0.57025111345730084 0.88505069428784366 0.29185179457859334 1 0.83988242161770832 0.015382045136436725 0.76734551688874186 0.80930224819707031 0.76038452170971149 0.092250326757064627 47:1 48:3 53:1 54:2 55:2 56:2 59:1 60:1 61:2 62:2 63:1 64:1 67:3 68:3 69:2 74:1 75:4 76:2 82:2 83:4 85:1 86:2 87:2 88:1 90:3 91:3 92:2 93:2 94:3 95:2 96:1 98:2 99:2 100:1 102:1 103:3 104:2 106:2 107:2 111:2 112:3 114:1 115:2 116:1 119:3 120:2 123:3 124:2 125:1 126:2 127:3 128:2 132:2 133:3 134:2 135:2 140:1 141:1 142:1 
-0 -0 -0 -0 -0 0 0 0 0 0 0.022530543418109519 0 0 0 0 0 0 0 0 0 34:1 35:1 36:1 37:2 38:2 39:1 40:1 41:1 42:3 43:2 44:2 45:3 46:2 47:3 48:3 50:1 51:1 53:1 54:3 55:2 56:2 61:1 62:2 63:1 64:2 69:1 72:1 77:2 78:1 80:1 84:3 85:2 86:1 88:1 91:1 92:2 93:3 96:1 99:1 100:2 101:2 106:1 107:2 108:2 109:1 112:1 114:1 115:2 116:2 122:2 123:2 124:1 128:1 130:2 
